tree
version=v4
num_class=1
num_tree_per_iteration=1
label_index=0
max_feature_idx=32
objective=regression
feature_names=points_avg_last_5 points_avg_last_10 points_avg_season points_std_last_10 games_in_last_7_days fatigue_score shot_zone_mismatch_score pace_score usage_spike_score rest_advantage injury_risk recent_trend minutes_change opponent_def_rating opponent_pace home_away back_to_back playoff_game pct_paint pct_mid_range pct_three pct_free_throw team_pace team_off_rating team_win_pct vegas_points_line vegas_opening_line vegas_line_move has_vegas_line avg_points_vs_opponent games_vs_opponent minutes_avg_last_10 ppm_avg_last_10
feature_infos=[0:45.600000000000001] [0:40.200000000000003] [0:36.100000000000001] [0:18.52] [0:6] [50:100] [-10:10] none [-3:3] [0:2] none [-2:2] [-2:2] [85.359333333333339:124.65599999999999] [93.193333333333342:109.62666666666668] [0:1] none [0:1] [0:1] [0:0.91670000000000007] [0:1] [0:0.5] [92.799999999999997:108.90000000000001] [94.069999999999993:129.87] none [0:38.5] [0:40.5] [-19:14] [0:1] [0:60] [0:20] [1:44] [0:3]
tree_sizes=3281 3384 3381 3391 3412 3402 3392 3397 3412 3401 3400 3394 3404 3389 3393 3389 3401 3409 3404 3397 3423 3397 3419 3409 3410 3391 3389 3397 3399 3434 3404 3416 3413 3385 3383 3435 3422 3408 3417 3407 3410 3422 3409 3423 3431 3414 3400 3420 3434 3414 3397 3416 3424 3433 3418 3438 3434 3440 3432 3440 3436 3443 3434 3409 3412 3427 3431 3436 3438 3434 3416 3446 3431 3411 3455 3431 3437 3426 3427 3447 3452 3425 3441 3442 3439 3447 3438 3436 3440 3429 3445 3468 3457 3441 3442 3456 3455 3454 3463 3432 3447 3443 3436 3454 3455 3449 3446 3427 3468 3459 3431 3460 3452 3442 3455 3451 3431 3433 3454 3463 3432 3442 3457 3440 3440 3412 3462 3454 3442 3466 3447 3468 3447 3466 3469 3429 3460 3425 3390 3468 3429 3478 3453 3457 3423 3433 3424 3463 3437 3448 3401 3439 3436 3433 3454 3443 3439 3475 3450 3432 3429 3440 3466 3401 3443 3470 3442 3459 3479 3435 3387 3458 3452 3435 3442 3432 3431 3460 3471 3453 3461 3444 3468 3413 3466 3418 3442 3453 3455 3443 3468 3477 3457 3451 3463 3460 3442 3447 3436 3452 3450 3470 3440 3485 3465 3452 3470 3469 3466 3455 3456 3445 3417 3438 3450 3453 3445 3429 3442 3477 3462 3461 3469 3464 3458 3460 3451 3426 3474 3455 3446 3461 3457 3469 3442 3472 3442 3469 3442 3452 3463 3486 3435 3498 3461 3445 3463 3453 3466 3473 3460 3459 3469 3419 3447 3453 3457 3457 3469 3472 3448 3457 3442 3452 3452 3454 3437 3447 3471 3455 3411 3464 3456 3462 3437 3482 3447 3453 3435 3462 3443 3360 3466 3432 3476 3451 3395 3477 3449 3423 3134 3466 3481 3459 3474 3468 3477 3436 3458 3455 3465 3456 3464 3458 3137 3475 3459 3463 3478 3473 3464 3031 3454 3465 3427 3450 3435 3151 3446 3449 3429 3460 3483 3445 3456 3475 3469 3454 3443 3464 3441 3453 3488 3465 3328 3449 3478 3436 3428 3459 3474 3446 3475 3447 3474 3442 3439 3398 3428 3484 3436 3415 3451 3441 3413 3446 3423 3471 3468 3433 3429 3423 3454 3463 3466 3442 3409 3464 3482 3459 3473 3462 3458 3435 3462 3431 3432 3444 3435 3468 3425 3397 3470 3471 3483 3421 3473 3435 3000 3440 3445 3426 3420 3437 3472 3450 3443 3463 3438 3452 3458 3467 3445 3457 3452 3434 3453 3469 3459 3400 3339 3478 3442 3463 3476 3470 3446 3446 3440 3465 3454 3449 3232 3457 2602 3482 3438 3114 3409 3488 3419 3468 3468 3430 3454 3447 3437 3420 3450 3422 3313 3484 2890 3455 3453 3447 3410 3480 3502 3482 3447 3124 3208 3456 3466 3422 3105 3459 3427 3210 3461 3463 3473 3476 3439 3437 3399 3416 3456 3436 3457 3454 3400 3452 3459 3453 3431 3471 3431 3474 3420 3460 3436 3460 3464 3456 3443 3432 1847 3447 3116 3489 3478 3105 3479 3436 3449 3450 3468 3464 3481 3457 3022 3457 3481 3450 3464 3404 3444 3461 3459 3435 3449 3414 3439 3451 3441 3448 3446 2675 3457 3475 3448 3477 3474 3474 3416 3452 3460 3430 3424 3452 2887 3426 3454 3452 3457 3461 3458 3439 2179 3489 3444 3474 3458 3023 3438 3460 3491 3452 3473 3460 3469 3462 3465 3464 3449 3462 3472 3432 3431 3448 3466 3478 3434 3426 3404 3468 3442 3462 2799 3485 3461 2607 3399 3476 3421 3439 3452 3458 3422 3456 3486 3415 3452 3454 3438 3430 2169 3498 3431 3111 3470 3476 3456 3429 3468 3490 3452 3432 3303 3440 3446 3448 3480 3444 3466 3445 3459 3450 2777 3467 3422 2885 2991 3464 3468 3435 3453 3458 3462 3431 3459 3438 3437 3451 3443 3459 3477 3461 3467 3458 3482 3459 3413 3465 3474 3351 3432 3392 3478 3434 3245 3453 3447 3434 3431 3454 3465 3455 3470 3468 3456 3455 3459 3430 3470 3432 3466 3426 1959 3451 3442 3486 1649 3447 3465 3443 3445 3474 3447 3474 3501 3468 3487 3470 3449 3458 3449 3427 3447 3432 3447 3462 3451 3419 2153 3426 2695 3462 3454 3487 3442 3493 3457 3432 3445 3449 3468 3434 3461 3465 3480 3418 3450 3440 3437 3456 3452 3457 3428 3444 3460 3449 3434 3457 3495 3462 3412 3431 3431 3447 3458 3464 3488 3456 3447 3425 3457 3453 3488 2478 3440 3458 3423 3463 3477 3472 3461 3452 2774 3434 3446 3456 2775 3467 3449 3467 3476 3455 3426 3471 3447 3450 3452 3452 3450 3466 3456 3476 3459 3444 3476 2285 3448

Tree=0
num_leaves=31
num_cat=0
split_feature=1 1 1 1 1 1 1 1 32 32 1 2 31 32 1 32 32 32 31 31 32 1 31 31 3 31 31 30 22 2
split_gain=1.97817e+06 399370 232272 63532.2 59716.3 48516 21437 14946.3 13757.6 11290.1 9373.5 8571.95 8696.18 8564.08 8313.37 7806.7 6942.85 6910.79 9470.28 8209.41 6558.6 6415.75 6368.76 6161.61 5779.49 5754.21 5406.63 4815.61 4712.51 4701.29
threshold=14.633333333333335 7.6333333333333337 23.31666666666667 3.6125000000000003 10.535714285714286 19.450000000000003 28.050000000000004 5.5277777777777786 0.39978299650000004 0.64359434350000011 12.105555555555556 21.954451345755697 35.379807692500002 0.36207981100000003 15.725000000000001 0.54507995850000013 0.71905805950000012 0.4234986870000001 30.904545454500003 29.825757575500003 0.25991214650000005 9.3166666666666682 25.851648351500003 36.160256410500004 6.785000000000001 29.345238095000003 20.031250000000004 14.500000000000002 103.55000000000001 23.914285714285718
decision_type=2 2 2 2 2 2 2 2 2 2 2 2 2 2 2 2 2 2 2 2 2 2 2 2 2 2 2 2 2 2
left_child=1 3 5 -1 8 14 16 -5 21 11 13 12 -7 -6 28 24 29 18 -12 -19 -9 -3 -10 -13 -16 -15 -23 -8 -2 -4
right_child=2 4 6 7 10 9 27 20 22 -11 17 23 -14 25 15 -17 -18 19 -20 -21 -22 26 -24 -25 -26 -27 -28 -29 -30 -31
leaf_value=10.48982380365308 10.842351110023717 10.689524066802635 11.171712200937904 10.558975616615484 10.860919225446837 11.112699461131438 11.34922624702657 10.687645488210109 10.659652071273491 10.981306273106956 10.975595636886528 11.301149323515114 10.971501413660308 10.758112793730332 10.950185241898499 10.904108391266414 11.135630362372877 10.822128724060596 10.820659505420851 10.724387920685984 10.609680339700745 11.004669769970825 10.559499471470883 11.026851576516384 11.05780252000379 10.657326760849944 10.74910025031688 10.96625602569047 10.971077287577046 11.308769847639326
leaf_weight=8563.0770820612088 1367.4954949668609 3066.1732251364738 543.53261512168683 6379.3550762212835 621.65455804928206 1483.0764803055208 1544.8727761241607 1144.5722334999591 2791.8115789610893 1069.4996644896455 516.60898875677958 302.83150377986021 581.72039765887894 2929.5378857150208 1369.730175819248 2011.1399906459264 1151.4460855724756 2943.9156509370077 1143.1561313266866 1046.0204792560544 6800.6090383902192 72.675163617124781 721.82473935885355 121.07356814783998 723.42560064210556 612.03251725202426 1838.6547753775958 38.078259468078613 317.29425546270795 629.10416734591126
leaf_count=7453 1548 3822 689 6607 728 1276 1289 1148 3390 1002 717 173 596 2762 1460 2108 1117 2520 824 1034 6940 87 607 136 1056 617 1911 7 338 484
internal_value=10.7406 10.638 11.0593 10.5545 10.7425 10.9779 11.2535 10.5933 10.6843 11.0652 10.7929 11.1007 11.0736 10.7587 10.924 10.9472 11.193 10.818 10.8695 10.7965 10.6209 10.7164 10.6388 11.2271 10.9881 10.7406 10.7595 11.3408 10.8672 11.2474
internal_weight=54446 41191.7 13254.3 22887.6 18304.1 9347.29 3907.03 14324.5 8491.14 3558.2 9812.93 2488.7 2064.8 4163.22 5789.09 4104.3 2324.08 5649.7 1659.77 3989.94 7945.18 4977.5 3513.64 423.905 2093.16 3541.57 1911.33 1582.95 1684.79 1172.64
internal_count=54446 41167 13279 22148 19019 9693 3586 14695 9817 3183 9202 2181 1872 4107 6510 4624 2290 5095 1541 3554 8088 5820 3997 309 2516 3379 1998 1296 1886 1173
is_linear=0
shrinkage=1


Tree=1
num_leaves=31
num_cat=0
split_feature=0 1 0 0 1 0 0 1 0 0 0 0 1 12 0 27 31 29 5 31 22 25 0 0 27 0 21 25 0 0
split_gain=1.96877e+06 323685 259994 60943.4 59777.9 55561.6 25850.1 23153.5 20786.8 9430.82 7289.13 5777.94 6962.71 5609.31 5560.68 5362.78 4838.55 4534.38 4102.14 3991.87 3976.63 3726.29 6559.75 3665.13 3610.51 3529.78 2902.59 2895.07 2839.19 2724.02
threshold=14.700000000000001 7.6333333333333337 24.500000000000004 10.100000000000001 3.6125000000000003 19.100000000000005 5.5000000000000009 16.350000000000005 31.100000000000005 11.300000000000002 15.900000000000002 7.3000000000000016 5.0500000000000007 1.0000000180025095e-35 7.9000000000000012 -0.19999999999999971 32.559027778000008 34.071428571428577 92.500000000000014 27.806250000000002 102.65000000000002 25.482142857142865 26.300000000000001 20.300000000000001 1.7142857142857151 3.5000000000000004 0.0137458665 23.022727272727277 4.5000000000000009 13.300000000000002
decision_type=2 2 2 2 2 2 2 2 2 2 2 2 2 2 2 2 2 2 2 2 2 2 2 2 2 2 2 2 2 2
left_child=1 4 5 7 13 10 28 14 17 -5 26 -8 -13 -1 -3 27 -9 21 -12 -16 24 22 -4 -17 -11 -15 -2 -7 -6 -22
right_child=2 3 8 9 6 15 11 16 -10 20 18 12 -14 25 19 23 -18 -19 -20 -21 29 -23 -24 -25 -26 -27 -28 -29 -30 -31
leaf_value=-0.25444339194311122 0.32211596211861648 -0.12208345650793063 0.44938203796368231 -0.0038534135247833795 -0.21274927251328038 0.21053499847651372 -0.13265213877810655 0.11046555754327575 0.67149174529465727 0.037723647826542854 0.15860443311476172 -0.18761399888534516 -0.067663428380524249 -0.21708749934227606 -0.04580177679830677 0.27728747169206264 0.44091027893995199 0.72398288635068986 0.22348967080945817 -0.10022233447595384 0.066449978506906079 0.44110461256598044 0.6055323096225036 0.34992109955538003 0.2057581877013174 -0.11030253783304737 0.12212172596681059 0.33469617389545481 -0.16908428901582462 0.13276865101865987
leaf_weight=7107.8410214334726 64.648384111002088 2075.9589828357566 633.31362760392949 3033.2941407614853 3015.906027702149 694.95954982633702 4608.1270946925506 86.310785813257098 783.39865221898071 4233.4109247324523 1540.3423466698732 496.54393874178641 3457.6025649341755 1051.9275458145421 3609.745374530321 1020.079701079987 77.436150897061452 87.409162706928328 2297.318771106191 1838.1271103455219 1598.0199572725687 1402.2032607090659 557.46169434580952 2529.2486681002192 113.67866199975833 403.30851481319405 2155.3833050446119 253.74516109889373 2746.3567220408004 872.89235548488796
leaf_count=6134 15 2870 569 3023 3788 609 4632 43 678 5072 1805 310 3199 913 3849 918 17 107 2311 1809 1216 1257 477 2639 86 406 2033 174 2766 721
internal_value=1.28359e-05 -0.106225 0.306289 -0.00924422 -0.180523 0.232087 -0.142942 -0.0725246 0.531749 0.0401476 0.172523 -0.109762 -0.082948 -0.243267 -0.0802734 0.312021 0.275256 0.489727 0.197691 -0.0642412 0.0597141 0.480446 0.524723 0.32947 0.0423526 -0.187982 0.128663 0.24534 -0.192105 0.0901051
internal_weight=54446 40426.5 14019.5 17538.9 22887.6 10555.7 14324.5 7687.58 3463.79 9851.3 6057.69 8562.27 3954.15 8563.08 7523.83 4498.03 163.747 2680.39 3837.66 5447.87 6818 2592.98 1190.78 3549.33 4347.09 1455.24 2220.03 948.705 5762.26 2470.91
internal_count=54446 40854 13592 18706 22148 10504 14695 8588 3088 10118 6164 8141 3509 7453 8528 4340 60 2410 4116 5658 7095 2303 1046 3557 5158 1319 2048 783 6554 1937
is_linear=0
shrinkage=0.03


Tree=2
num_leaves=31
num_cat=0
split_feature=0 0 0 2 0 0 0 2 2 0 0 32 3 0 0 32 32 31 32 27 0 0 26 23 32 21 32 3 0 32
split_gain=1.85293e+06 297536 244792 100252 52292.1 33502.7 19557.8 18975 15562.3 9050.75 8711.33 7725.88 8098.55 6854.97 6204.49 5995.2 5959.31 5759.68 5583.77 5037.28 4397.39 4100.59 4983.06 4303.38 4077.27 4050.45 3630.91 3520.23 3445.83 4698.22
threshold=14.700000000000001 10.100000000000001 24.500000000000004 5.301162790697675 19.100000000000005 7.3000000000000016 31.100000000000005 16.614814814814817 3.5968750000000012 11.300000000000002 5.3000000000000016 0.47228494300000007 7.0450000000000008 15.900000000000002 4.5000000000000009 0.38237690150000009 0.48536285050000005 35.292857143000006 0.37802251650000002 -0.19999999999999971 16.700000000000006 26.300000000000001 26.550000000000004 107.80500000000002 0.28382203750000007 0.18148092150000003 0.39492799600000006 9.4050000000000029 20.300000000000001 0.65942213550000017
decision_type=2 2 2 2 2 2 2 2 2 2 2 2 2 2 2 2 2 2 2 2 2 2 2 2 2 2 2 2 2 2
left_child=1 3 4 8 13 10 21 18 -1 24 -5 12 -11 -2 -10 -14 -15 -9 -7 -6 -18 23 27 -4 -3 -24 -12 -23 -21 -30
right_child=2 9 6 5 19 7 -8 17 14 11 26 -13 15 16 -16 -17 20 -19 -20 28 -22 22 25 -25 -26 -27 -28 -29 29 -31
leaf_value=-0.23770698465616816 0.12483340909167888 0.17336167282131829 0.22293122019633999 -0.19811357675644742 0.2380661122721667 -0.043238050775915755 0.65147475635921337 0.12975832231660045 -0.20732468809922625 0.062238667492460285 -0.10706823541940812 0.015901524699128856 0.30681307665094165 0.25839443912917609 -0.14497861539206441 0.11796339457137445 0.098183476287629134 0.5139681633713673 -0.090248535540896457 0.26900942367447739 0.18936708389908383 0.5108026651715083 0.34892126000132712 0.44143323784578775 -0.0096351951690293001 0.50439114179503153 -0.16159947765761329 0.66966224326610246 0.37252070566750023 0.2826037471495455
leaf_weight=7819.0675196927041 2220.031689155614 108.54627915192395 107.24937975243665 2243.6119182116818 948.70471092523076 4215.6914802780375 783.39865221898071 132.61570955137722 2656.0636650898959 3523.3498382535763 3202.2444021701813 2527.9135051877238 204.81807248061523 933.74236771161668 3311.018041548552 593.65913318376988 625.27189871063456 45.713223615661263 4980.0141520104371 1020.079701079987 2278.646851353813 652.24838311504573 324.29017481487244 885.65039746975526 3129.5537891115528 452.95483567821793 1732.6071453080513 257.99457453540526 1581.1275520601775 948.12111604004167
leaf_count=6521 2048 146 123 3462 783 4346 678 76 2990 3557 3673 2706 296 1160 3368 586 692 10 4576 918 2264 662 175 797 3087 449 1454 204 1790 849
internal_value=2.42354e-05 -0.103041 0.297153 -0.149966 0.225153 -0.100146 0.515922 -0.0627408 -0.209723 0.0380863 -0.148912 0.0576122 0.0819595 0.167368 -0.172883 0.168032 0.191775 0.239661 -0.0687338 0.3027 0.169941 0.47516 0.506811 0.419082 -0.0032384 0.442188 -0.126361 0.559258 0.319612 0.339444
internal_weight=54446 40426.5 14019.5 30338.6 10555.7 16552.5 3463.79 9374.03 13786.1 10087.8 7178.46 6849.74 4321.83 6057.69 5967.08 798.477 3837.66 178.329 9195.71 4498.03 2903.92 2680.39 1687.49 992.9 3238.1 777.245 4934.85 910.243 3549.33 2529.25
internal_count=54446 40854 13592 30476 10504 17597 3088 9008 12879 10378 8589 7145 4439 6164 6358 882 4116 86 8922 4340 2956 2410 1490 920 3233 624 5127 866 3557 2639
is_linear=0
shrinkage=0.03


Tree=3
num_leaves=31
num_cat=0
split_feature=0 1 0 0 1 0 0 1 0 0 32 3 0 32 32 30 32 0 12 0 31 0 0 30 25 23 3 3 0 32
split_gain=1.74392e+06 287294 230519 53777.8 52978.7 49218.1 22836.5 20685.7 18394.3 8346.02 7366.66 7777.8 6452.32 6430 5865.74 5915.48 5610.44 5497.95 5302.37 4559.98 4389.09 4136.25 3866.6 5222.87 4061.29 4037.7 3607.52 3530.39 3528.04 5173.81
threshold=14.700000000000001 7.6333333333333337 24.500000000000004 10.100000000000001 3.6125000000000003 19.100000000000005 5.5000000000000009 16.350000000000005 31.100000000000005 11.300000000000002 0.47228494300000007 7.0450000000000008 15.900000000000002 0.48536285050000005 0.35147671050000001 1.0000000180025095e-35 0.48536285050000005 7.3000000000000016 1.0000000180025095e-35 9.1000000000000014 32.559027778000008 16.700000000000006 26.300000000000001 7.5000000000000009 25.482142857142865 107.80500000000002 7.8050000000000006 2.4050000000000007 20.300000000000001 0.64839312500000013
decision_type=2 2 2 2 2 2 2 2 2 2 2 2 2 2 2 2 2 2 2 2 2 2 2 2 2 2 2 2 2 2
left_child=1 4 5 7 18 12 -6 14 22 -5 11 -11 -2 17 19 -16 -14 -8 -1 -3 -9 -18 25 24 -24 -4 -15 -20 -7 -30
right_child=2 3 8 9 6 28 13 20 -10 10 -12 -13 16 26 15 -17 21 -19 27 -21 -22 -23 23 -25 -26 -27 -28 -29 29 -31
leaf_value=-0.23986576159595596 0.12109682204633429 -0.059815045757451023 0.21654118784133033 -0.0035778788806946427 -0.18077581076289945 0.24777031515891407 -0.11698961568770848 0.10384089265818307 0.63205444017386581 0.060766803796821603 0.015497698202575513 0.16493188850786028 0.25068389769548577 -0.1835798765851567 -0.18717258210330689 -0.081311052670388614 0.095261338484830427 -0.065320374482211133 -0.23062882571492582 0.039233991276249935 0.41843908439410549 0.1836985097871604 0.59760293972489142 0.37497297627842474 0.47153552549488992 0.42826458498487124 0.14999913494426376 -0.13400782516034324 0.34567289361397019 0.2655704253527516
leaf_weight=7107.8410214334726 2220.031689155614 1497.8716381988488 107.24937975243665 3033.2941407614853 5762.2627497429494 1251.2460233254824 4134.8592354936991 86.310785813257098 783.39865221898071 3503.7291535483673 2524.0148607315496 790.25788520975038 933.74236771161668 992.2947450093925 525.62442709645256 4924.8448594922666 625.27189871063456 3408.6698850598186 612.86931095295586 575.49054292403162 77.436150897061452 2278.646851353813 499.27835303801112 347.53715390712023 840.67246119841002 885.65039746975526 26.449732805602252 842.36674967478029 1819.5841140069533 1427.2029427730013
leaf_count=6134 2048 1970 123 3023 6554 1122 4248 43 678 3535 2695 865 1160 799 1581 4250 692 3069 298 727 17 2264 465 97 928 797 25 1021 1992 1226
internal_value=3.8215e-05 -0.099949 0.288294 -0.00858228 -0.169946 0.218425 -0.134567 -0.0680263 0.50059 0.037815 0.0562218 0.0801102 0.162363 -0.10338 -0.0753508 -0.0916849 0.186043 -0.0937027 -0.229014 -0.0322871 0.260694 0.164858 0.461056 0.491788 0.520568 0.40661 -0.174214 -0.17536 0.293658 0.310929
internal_weight=54446 40426.5 14019.5 17538.9 22887.6 10555.7 14324.5 7687.58 3463.79 9851.3 6818 4293.99 6057.69 8562.27 7523.83 5450.47 3837.66 7543.53 8563.08 2073.36 163.747 2903.92 2680.39 1687.49 1339.95 992.9 1018.74 1455.24 4498.03 3246.79
internal_count=54446 40854 13592 18706 22148 10504 14695 8588 3088 10118 7095 4400 6164 8141 8528 5831 4116 7317 7453 2697 60 2956 2410 1490 1393 920 824 1319 4340 3218
is_linear=0
shrinkage=0.03


Tree=4
num_leaves=31
num_cat=0
split_feature=0 0 0 2 0 0 2 0 2 0 12 32 3 11 32 0 0 12 32 25 5 0 25 32 0 32 2 0 31 0
split_gain=1.64127e+06 263678 217049 88977.9 46318.2 30107.3 17409.4 17326.8 13862.4 7974.46 7089.69 6846.69 7185.15 6715.54 6241.72 7149.7 6042.62 5953.91 5714.45 5308.44 4694.99 4040.56 5209.09 3867.25 3319 4867.72 5315.89 3285.01 3208.43 3510.84
threshold=14.700000000000001 10.100000000000001 24.500000000000004 5.301162790697675 19.100000000000005 6.9000000000000012 16.614814814814817 31.300000000000001 3.5968750000000012 11.300000000000002 1.0000000180025095e-35 0.47228494300000007 7.0450000000000008 -1.0000000180025095e-35 0.62534062850000016 16.100000000000005 5.3000000000000016 1.0000000180025095e-35 0.37802251650000002 20.387500000000006 92.500000000000014 26.300000000000001 25.482142857142865 0.28382203750000007 20.300000000000001 0.64839312500000013 24.514705882352946 5.1000000000000005 31.792857143000003 12.900000000000002
decision_type=2 2 2 2 2 2 2 2 2 2 2 2 2 2 2 2 2 2 2 2 2 2 2 2 2 2 2 2 2 2
left_child=1 3 4 8 14 16 18 21 17 23 27 12 -11 -14 15 -2 -5 -1 -7 -8 -17 -4 -23 -3 -6 -26 -27 -10 29 -13
right_child=2 9 7 5 24 6 19 -9 10 11 -12 28 13 -15 -16 20 -18 -19 -20 -21 -22 22 -24 -25 25 26 -28 -29 -30 -31
leaf_value=-0.23738290550506591 0.12851836735415828 0.16910343407688794 0.3945086951652747 -0.18681330380141642 0.24036678982762005 -0.044854133591284227 0.063959589100790137 0.62321668474899694 -0.19802378482587163 0.058574767273347726 -0.094947627397167542 -0.012262574433427093 0.058004096012776986 0.23417977037462104 0.075115007451352703 0.15087299571499505 -0.12413523022236335 -0.1713066463968588 -0.089639434811312535 0.39125882833927783 0.22947296486100593 0.55939172274285365 0.43798988370092856 -0.0091180080865414792 0.33533112682232535 0.21978820452292913 0.35322500684498259 -0.1454213001200382 -0.090016661833878464 0.06183632541974636
leaf_weight=6201.6814880089369 2302.7543649564032 108.54627915192395 992.89977722219191 2243.6119182116818 1251.2460233254824 4866.864994130563 93.296561321942136 696.199773598928 3029.1302768015303 3523.3498382535763 1147.3511448744684 1118.1689002832863 348.13841351424344 450.33879215014167 739.90711661265232 1163.223676469177 3798.2948501792271 1617.3860316837672 5465.3973354569171 85.03237184509635 1851.8076488934457 591.02964595681988 1183.6572008067742 3129.5537891115528 1819.5841140069533 1034.3755990178324 392.82734375516884 1790.6002849624492 232.6367910283152 1177.1078138761222
leaf_count=4639 2213 146 920 3462 1122 5067 59 635 2983 3557 2113 1064 418 464 574 1514 3997 1882 4985 27 1863 489 1044 3087 1992 883 343 1262 342 1300
internal_value=4.73279e-05 -0.0969525 0.279691 -0.141127 0.211894 -0.0941919 -0.0634637 0.485691 -0.197424 0.0359022 -0.162655 0.0542303 0.0771505 0.158224 0.157509 0.168889 -0.147548 -0.223835 -0.0685773 0.226522 0.199453 0.450029 0.479887 -0.00288761 0.284877 0.30163 0.257631 -0.178655 0.0149642 0.0257835
internal_weight=54446 40426.5 14019.5 30338.6 10555.7 16552.5 10510.6 3463.79 13786.1 10087.8 5967.08 6849.74 4321.83 798.477 6057.69 5317.79 6041.91 7819.07 10332.3 178.329 3015.03 2767.59 1774.69 3238.1 4498.03 3246.79 1427.2 4819.73 2527.91 2295.28
internal_count=54446 40854 13592 30476 10504 17597 10138 3088 12879 10378 6358 7145 4439 882 6164 5590 7459 6521 10052 86 3377 2453 1533 3233 4340 3218 1226 4245 2706 2364
is_linear=0
shrinkage=0.03


Tree=5
num_leaves=31
num_cat=0
split_feature=0 1 0 0 1 0 0 1 0 0 0 0 29 0 3 31 12 31 5 23 22 3 0 12 3 19 3 22 23 25
split_gain=1.54462e+06 254976 204317 47443.9 46923.2 43597.5 20977 18455.3 16339.2 7410.66 5785.04 4852.01 4607.54 4427.66 6636.6 4013.29 4005.42 3799.52 3668.8 3403.18 3357.51 6627.08 3124.07 2954.65 2946.25 2826.41 2659.83 2463.78 2277.32 2265.64
threshold=14.700000000000001 7.6333333333333337 24.500000000000004 10.100000000000001 3.535714285714286 19.100000000000005 5.5000000000000009 16.350000000000005 31.100000000000005 11.500000000000002 15.900000000000002 7.9000000000000012 34.071428571428577 7.3000000000000016 5.1950000000000012 32.559027778000008 1.0000000180025095e-35 27.806250000000002 92.500000000000014 119.04500000000002 102.65000000000002 6.9250000000000007 20.300000000000001 1.0000000180025095e-35 5.0050000000000008 0.19515000000000002 7.5550000000000006 99.750000000000014 120.28500000000001 30.520833333333339
decision_type=2 2 2 2 2 2 2 2 2 2 2 2 2 2 2 2 2 2 2 2 2 2 2 2 2 2 2 2 2 2
left_child=1 4 5 7 16 10 23 11 12 -5 28 -3 19 -8 -15 -9 -1 -13 -12 -4 -11 -22 27 -6 -18 -25 -20 -7 -2 -24
right_child=2 3 8 9 6 22 13 15 -10 20 18 17 -14 14 -16 -17 24 -19 26 -21 21 -23 29 25 -26 -27 -28 -29 -30 -31
leaf_value=-0.22700549841509027 0.10561945162078415 -0.10976758600645663 0.41174334365689685 0.0016634327979042926 -0.17964722100878955 0.15250020816846721 -0.11738989956530389 0.096877356918317684 0.59510350778393084 0.039077203704067601 0.1383815846849171 -0.037783312009423892 0.66398360031336168 -0.09650447530862917 -0.0071203278204997038 0.39747517737852706 -0.17822917858421564 -0.090843700666116342 0.17844398585823215 0.54768804817465278 0.056735352370796355 0.18075444417872741 0.29459005332642618 -0.16859052484416537 0.041988899961147526 -0.0658296394327616 0.2535932548402326 0.25705547483232349 0.23446473832971765 -0.020714875959910971
leaf_weight=6834.9150626948103 2089.2061300671194 2075.9589828357566 2361.2779304985888 3647.580349621363 5104.0717589948326 294.24951391690411 4617.6474048735108 86.310785813257098 783.39865221898071 4000.0094740192872 1540.3423466698732 3609.745374530321 87.409162706928328 2951.9614879486617 1002.1850157273002 77.436150897061452 1333.8370154227596 1838.1271103455219 1667.5833002661821 231.70065216021612 1702.7689465435687 500.93727006693371 3226.8744570384733 529.70603204122745 55.101753235328943 458.18789923423901 629.73547084000893 956.99650940857828 130.82555908849463 19.912599741481245
leaf_count=5891 1965 2870 2081 3536 5220 326 4662 43 678 4781 1805 3849 107 2406 1103 17 1219 1809 1685 222 1301 500 3210 1267 30 350 626 796 83 8
internal_value=5.52709e-05 -0.0940453 0.27134 -0.00797096 -0.159988 0.205562 -0.127736 -0.0638048 0.471208 0.0356084 0.152798 -0.0707235 0.433951 -0.0973806 -0.0738913 0.246685 -0.217381 -0.0557557 0.175218 0.424927 0.0555471 0.085279 0.276369 -0.17033 -0.169363 -0.121516 0.199556 0.233184 0.113729 0.292623
internal_weight=54446 40426.5 14019.5 17538.9 22887.6 10555.7 14663.8 7687.58 3463.79 9851.3 6057.69 7523.83 2680.39 8571.79 3954.15 163.747 8223.85 5447.87 3837.66 2592.98 6203.72 2203.71 4498.03 6091.97 1388.94 987.894 2297.32 1251.25 2220.03 3246.79
internal_count=54446 40854 13592 18706 22148 10504 15008 8588 3088 10118 6164 8528 2410 8171 3509 60 7140 5658 4116 2303 6582 1801 4340 6837 1249 1617 2311 1122 2048 3218
is_linear=0
shrinkage=0.03


Tree=6
num_leaves=31
num_cat=0
split_feature=0 1 0 0 1 0 0 1 0 0 32 3 32 0 32 32 27 25 0 32 0 32 0 3 3 23 1 26 12 32
split_gain=1.45369e+06 239943 192351 44639.4 44149.9 41020.6 19740.7 17427.9 15429.6 7003.4 6563.51 6719.12 5932.54 6398.62 5919.28 5447.45 4772.17 4726.6 4572.74 4459.69 4193.07 3955.83 6248.75 4537.89 4220.66 3999.8 3912.56 3883.61 3767.13 3511.63
threshold=14.700000000000001 7.6333333333333337 24.500000000000004 10.100000000000001 3.535714285714286 19.100000000000005 5.5000000000000009 15.316666666666668 31.300000000000001 11.300000000000002 0.47228494300000007 7.0450000000000008 0.62534062850000016 16.100000000000005 0.48536285050000005 0.35147671050000001 -0.19999999999999971 10.012820512820515 7.3000000000000016 0.48536285050000005 9.1000000000000014 0.86639970050000015 26.300000000000001 9.4050000000000029 9.9150000000000009 107.80500000000002 28.450000000000003 19.405882352941177 1.0000000180025095e-35 0.21644754100000005
decision_type=2 2 2 2 2 2 2 2 2 2 2 2 2 2 2 2 2 2 2 2 2 2 2 2 2 2 2 2 2 2
left_child=1 4 5 7 28 12 29 15 21 -5 11 -11 13 -2 18 20 -7 -17 -8 -15 -3 22 25 -24 26 -4 -23 -9 -1 -6
right_child=2 3 8 9 6 16 14 27 -10 10 -12 -13 -14 19 -16 17 -18 -19 -20 -21 -22 24 23 -25 -26 -27 -28 -29 -30 -31
leaf_value=-0.22020030500220486 0.12113828988400029 -0.053648738044281469 0.1876805732596071 -0.0033725557928863032 -0.1094782409585921 0.20571849318839588 -0.1063915475272114 0.085140624347968777 0.58692767709036031 0.055975896270848528 0.012969594954898026 0.15279070828685853 0.067973430992150738 0.24896267373630837 -0.16227777968021262 -0.10451318989818328 0.28445807038868848 -0.0452801638975305 -0.059285845314032755 0.16519875155816685 0.04131949067279847 0.1181044417963452 0.44396889927145955 0.58258784777756178 0.11096435199602714 0.39667583801700163 0.41775063458947825 0.37503593458041456 -0.16429614314723118 -0.17482249451238396
leaf_weight=6834.9150626948103 2302.7543649564032 1497.8472102140076 106.37762796715833 3033.2941407614853 903.56354698119685 948.70471092523076 4140.996466354467 85.958768283715472 696.199773598928 3503.7291535483673 2524.0148607315496 790.25788520975038 739.90711661265232 815.74457694054581 1022.1275571351871 3597.396294065984 3549.3283691802062 1847.3747802395374 3408.6698850598186 2199.2867484220769 575.49054292403162 51.683422281872481 1043.3829431512859 365.02394476067275 74.127711648121476 859.47602307097986 267.51495110569522 83.510808694642037 1388.9387686580885 5188.4021432891022
leaf_count=5891 2213 1968 120 3023 819 783 4274 48 635 3535 2695 865 574 1018 828 3738 3557 2076 3069 2359 727 37 995 320 44 769 168 31 1249 6018
internal_value=6.28869e-05 -0.0912257 0.263241 -0.00772716 -0.155195 0.199418 -0.12391 -0.0618856 0.457168 0.0345445 0.0514059 0.073954 0.148237 0.159328 -0.0944632 -0.0687255 0.268101 -0.0844786 -0.0851787 0.188241 -0.0272455 0.423521 0.439164 0.48184 0.324729 0.374758 0.371849 0.234734 -0.210866 -0.165231
internal_weight=54446 40426.5 14019.5 17538.9 22887.6 10555.7 14663.8 7687.58 3463.79 9851.3 6818 4293.99 6057.69 5317.79 8571.79 7518.11 4498.03 5444.77 7549.67 3015.03 2073.34 2767.59 2374.26 1408.41 393.326 965.854 319.198 169.47 8223.85 6091.97
internal_count=54446 40854 13592 18706 22148 10504 15008 8588 3088 10118 7095 4400 6164 5590 8171 8509 4340 5814 7343 3377 2695 2453 2204 1315 249 889 205 79 7140 6837
is_linear=0
shrinkage=0.03


Tree=7
num_leaves=31
num_cat=0
split_feature=0 1 0 0 1 0 0 1 0 32 0 32 0 32 0 32 0 30 27 30 0 32 5 12 0 31 2 32 32 0
split_gain=1.36813e+06 225798 181140 41999 41569.5 38597 18030.3 16442.8 14517.1 6817.51 7034.49 5581.96 6088.36 5230.87 5912.58 5181.65 5958.04 5136.78 4487.23 4281.97 4449.46 6057.41 4241.8 4170.13 4059.33 4006.37 3401.18 5613.52 3484.2 3122.81
threshold=14.700000000000001 7.6333333333333337 24.500000000000004 10.100000000000001 3.6125000000000003 19.100000000000005 5.1000000000000005 15.316666666666668 31.300000000000001 0.37227292950000007 12.700000000000001 0.62534062850000016 17.500000000000004 0.48714249800000003 7.3000000000000016 0.37802251650000002 9.1000000000000014 1.0000000180025095e-35 -0.19999999999999971 12.500000000000002 26.300000000000001 0.70461043300000015 92.500000000000014 1.0000000180025095e-35 11.700000000000001 35.292857143000006 18.601724137931033 0.62534062850000016 0.55828673050000011 3.5000000000000004
decision_type=2 2 2 2 2 2 2 2 2 2 2 2 2 2 2 2 2 2 2 2 2 2 2 2 2 2 2 2 2 2
left_child=1 4 5 7 23 11 -6 15 19 24 -11 12 -2 14 -8 16 -3 -17 -7 20 -4 -22 -14 -1 -5 -9 28 -28 -20 -25
right_child=2 3 8 9 6 18 13 25 -10 10 -12 -13 22 -15 -16 17 -18 -19 26 -21 21 -23 -24 29 -26 -27 27 -29 -30 -31
leaf_value=-0.2124923906644578 0.133523601715303 -0.062645770517722979 0.36184984755231836 0.04338665468454754 -0.16892063649205913 0.19957929593588042 -0.1082681070726188 0.12921574218469786 0.5694454124888455 -0.0028895977439038537 0.054725594901366179 0.065947915915753538 0.14516425684288228 -0.15845431608908919 -0.057501087648660104 -0.18179184251788325 0.02999251357948832 -0.076253493493596156 0.2709384875285839 0.22537379030907995 0.55138443899546907 0.4120311440212574 0.24775042294260827 -0.18256457332470777 0.12956324498023264 0.4546459345717731 0.33966357160159416 0.25069985836690684 0.13730760964845196 -0.082733594741412703
leaf_weight=7107.8410214334726 3760.2484816520009 2232.3622570049483 961.69920306256972 1081.4223541265819 4507.0139146135189 948.70471092523076 5318.1325334268622 123.49218850699253 696.199773598928 4614.3164642942138 3244.7925339580979 739.90711661265232 662.05655057542026 1087.9341886355542 3411.4557114355266 463.18177367839962 863.2200658521615 3959.3447309080511 446.02047899458557 126.33706378936768 452.62024150043726 1226.9301156334113 895.48065809160471 1051.9275458145421 910.76468787225895 45.977388471364975 1272.49208734883 1510.5266834306531 320.28911940613762 403.30851481319405
leaf_count=6134 4002 2742 917 1191 5414 783 5318 69 635 4561 3447 574 750 885 3078 1338 1077 3352 631 14 370 1152 838 913 919 10 1026 1297 603 406
internal_value=7.05909e-05 -0.0884908 0.255387 -0.00749085 -0.150546 0.193451 -0.119206 -0.0600232 0.443577 0.0335115 0.0209158 0.143805 0.154563 -0.0963078 -0.0884747 -0.066667 -0.0368015 -0.087503 0.260074 0.410939 0.419366 0.451119 0.204758 -0.202869 0.0830171 0.228091 0.275936 0.291919 0.216357 -0.155285
internal_weight=54446 40426.5 14019.5 17538.9 22887.6 10555.7 14324.5 7687.58 3463.79 9851.3 7859.11 6057.69 5317.79 9817.52 8729.59 7518.11 3095.58 4422.53 4498.03 2767.59 2641.25 1679.55 1557.54 8563.08 1992.19 169.47 3549.33 2783.02 766.31 1455.24
internal_count=54446 40854 13592 18706 22148 10504 14695 8588 3088 10118 8008 6164 5590 9281 8396 8509 3819 4690 4340 2453 2439 1522 1588 7453 2110 79 3557 2323 1234 1319
is_linear=0
shrinkage=0.03


Tree=8
num_leaves=31
num_cat=0
split_feature=0 1 0 0 1 0 1 0 0 0 32 0 0 32 0 32 29 32 0 25 0 32 27 0 31 0 31 32 31 21
split_gain=1.28761e+06 212487 170528 39514.9 39302.1 36332.1 15526.4 13671.8 11265.9 10977.6 6417.18 6619.39 5498.52 5252.12 5825.25 4902.55 4519.55 5167.33 5604.53 4406.98 4342.9 4280.83 4223.05 3820.74 3798.6 3713.43 3357.97 3221.92 3018.48 2852.64
threshold=14.700000000000001 7.6333333333333337 24.500000000000004 10.100000000000001 5.3166666666666673 19.100000000000005 15.316666666666668 31.100000000000005 7.3000000000000016 2.7000000000000006 0.37227292950000007 12.700000000000001 9.5000000000000018 0.62534062850000016 16.100000000000005 0.35147671050000001 34.071428571428577 0.73610926850000014 26.300000000000001 10.012820512820515 5.1000000000000005 0.48536285050000005 -0.19999999999999971 11.700000000000001 35.292857143000006 9.1000000000000014 12.033333333500002 0.23969577150000002 8.4083333335000017 0.18630495700000002
decision_type=2 2 2 2 2 2 2 2 2 2 2 2 2 2 2 2 2 2 2 2 2 2 2 2 2 2 2 2 2 2
left_child=1 4 5 6 9 13 15 16 27 -1 23 -12 20 14 -2 25 17 18 -4 -17 -11 -16 -7 -5 -8 -3 -10 -6 -14 -24
right_child=2 3 7 10 8 22 24 -9 26 12 11 -13 28 -15 21 19 -18 -19 -20 -21 -22 -23 29 -25 -26 -27 -28 -29 -30 -31
leaf_value=-0.21513074419740055 0.11351498408430127 -0.050171511319392924 0.36175392854218769 0.042091046772744556 -0.050114301805359855 0.1936233061741717 0.12549011200920157 0.54368676491956369 0.042586990687133439 -0.15954569830227744 -0.0028030038379589688 0.053086353488567724 -0.21969145591102054 0.063982757884128036 0.23693224075608091 -0.098960444156125441 0.62097312438640295 0.33763217364195108 0.49223261824894493 -0.041776237442923206 -0.10668037251365525 0.15499339287643327 0.2410728888046553 0.12569756963334436 0.44234434282568197 0.039198556515627314 -0.062546316589306969 -0.13085270166207685 -0.14083598225947927 0.29871735142931038
leaf_weight=4617.4658295908011 2302.7543649564032 1497.8472102140076 690.97820806293748 1081.4223541265819 500.00790976383723 948.70471092523076 123.49218850699253 783.39865221898071 295.88079410186037 5198.0554790580645 4614.3164642942138 3244.7925339580979 1710.3857070563827 739.90711661265232 815.74457694054581 3597.396294065984 87.409162706928328 1199.2304357653484 702.7699388305191 1847.3747802395374 1981.6905416338705 2199.2867484220769 1933.6374365703668 910.76468787225895 45.977388471364975 575.49054292403162 3134.8952368714381 4807.8639427078888 641.36798938852735 1615.6909326098394
leaf_count=4534 2213 1968 597 1191 525 783 69 678 208 5297 4561 3447 827 574 1018 3738 107 1133 573 2076 2191 2359 2176 919 10 727 2898 5172 496 1381
internal_value=7.80656e-05 -0.0858378 0.247767 -0.00726162 -0.146036 0.187673 -0.0582167 0.430362 -0.0959182 -0.176943 0.0325096 0.0202892 -0.158339 0.139506 0.149941 -0.0646728 0.396284 0.387523 0.42908 -0.0796171 -0.145041 0.177523 0.252312 0.0805398 0.221752 -0.0253235 -0.0534261 -0.123304 -0.198537 0.267701
internal_weight=54446 40426.5 14019.5 17538.9 22887.6 10555.7 7687.58 3463.79 8738.65 14149 9851.3 7859.11 9531.5 6057.69 5317.79 7518.11 2680.39 2592.98 1393.75 5444.77 7179.75 3015.03 4498.03 1992.19 169.47 2073.34 3430.78 5307.87 2351.75 3549.33
internal_count=54446 40854 13592 18706 22148 10504 8588 3088 8803 13345 10118 8008 8811 6164 5590 8509 2410 2303 1170 5814 7488 3377 4340 2110 79 2695 3106 5697 1323 3557
is_linear=0
shrinkage=0.03


Tree=9
num_leaves=31
num_cat=0
split_feature=0 25 0 0 2 0 0 25 0 32 3 0 0 0 32 0 32 12 3 30 0 32 12 32 31 0 32 2 2 3
split_gain=1.21182e+06 196724 160564 37901.7 35094.7 34191.1 20301.5 13165.5 12921.6 6006.21 6662.4 6045.4 5610.49 5243.78 4941.74 5581.51 4764.64 4692.08 4206.61 4032.89 4033.23 5626.91 3782 3757.68 3732.51 2997.35 4408.33 5155.42 3035.01 2938.57
threshold=14.700000000000001 7.6030303030303044 24.500000000000004 10.100000000000001 3.5968750000000012 19.100000000000005 5.5000000000000009 18.408333333333335 31.300000000000001 0.37227292950000007 7.1950000000000012 12.700000000000001 7.7000000000000002 10.300000000000002 0.62534062850000016 17.500000000000004 0.38093070850000005 1.0000000180025095e-35 8.0150000000000023 12.500000000000002 26.300000000000001 0.80770776900000019 1.5000000000000002 0.62534062850000016 31.707142857000004 20.300000000000001 0.64839312500000013 24.514705882352946 22.103571428571435 5.0050000000000008
decision_type=2 2 2 2 2 2 2 2 2 2 2 2 2 2 2 2 2 2 2 2 2 2 2 2 2 2 2 2 2 2
left_child=1 4 5 7 17 14 22 12 19 10 -5 -11 -3 23 15 -2 -14 -1 -17 20 -4 -22 -6 -8 -9 -7 28 -28 -27 -19
right_child=2 3 8 9 6 25 13 24 -10 11 -12 -13 16 -15 -16 18 -18 29 -20 -21 21 -23 -24 -25 -26 26 27 -29 -30 -31
leaf_value=-0.2047431643116375 0.12532194104648081 -0.098280547775530039 0.34026876958450847 0.062889670815201998 -0.16069341571259568 0.20295986747271566 -0.086300453259671298 0.06538573793301343 0.53628955882803231 -0.0019108578192822045 0.26161996185844605 0.052275757000617804 -0.010587061652421972 0.0090510826916082969 0.062076158096128306 0.17357849024517999 -0.067830559533920615 -0.15450253976034145 0.3243921754727549 0.20765797631667451 0.4667018428251381 0.34130027213590663 -0.048174514968749402 -0.18379352719378281 0.39938294687591563 0.27296073559909884 0.18220964729123876 0.31252046603214167 0.38456533839219809 0.042587616324272048
leaf_weight=6181.7653326222207 3760.2484816520009 2446.083589986898 961.69920306256972 1772.031219688477 6003.1220467824023 1251.2460233254824 8044.8701386225875 58.339203695533797 696.199773598928 4383.6463666553609 162.05280470079742 3203.8404399205465 2288.8815023959614 501.17380094109103 739.90711661265232 1361.9586225850508 3059.5810425684322 1529.1706623623613 195.57858608197421 126.33706378936768 1106.9649675416294 572.58538959221914 287.33866894175299 372.31371739390306 63.159115594811738 1519.4795157266781 1034.3755990178324 392.82734375516884 300.10459828027524 69.118221972603351
leaf_count=4627 4002 3331 917 1671 6600 1122 7843 44 635 4265 269 3356 2480 716 574 1297 2922 1754 291 14 1031 491 615 242 16 1748 883 343 244 103
internal_value=8.47271e-05 -0.0832642 0.240374 -0.00727177 -0.140892 0.182062 -0.114307 -0.0557614 0.417553 0.0330481 0.0801803 0.020987 -0.060655 -0.0851108 0.135335 0.145457 -0.0433687 -0.192751 0.193503 0.386766 0.394919 0.425099 -0.155598 -0.0907212 0.248051 0.244768 0.260538 0.219053 0.292379 -0.145864
internal_weight=54446 40426.5 14019.5 17437.6 22988.9 10555.7 15208.8 7916.04 3463.79 9521.57 1934.08 7587.49 7794.55 8918.36 6057.69 5317.79 5348.46 7780.05 1557.54 2767.59 2641.25 1679.55 6290.46 8417.18 121.498 4498.03 3246.79 1427.2 1819.58 1598.29
internal_count=54446 40854 13592 18354 22500 10504 16016 8793 3088 9561 1940 7621 8733 8801 6164 5590 5402 6484 1588 2453 2439 1522 7215 8085 60 4340 3218 1226 1992 1857
is_linear=0
shrinkage=0.03


Tree=10
num_leaves=31
num_cat=0
split_feature=2 26 2 2 2 2 2 2 32 27 18 32 30 32 31 2 31 27 32 2 22 29 14 31 32 32 31 2 23 31
split_gain=1.06072e+06 230099 116805 52959.9 17615.3 15319.4 14419.8 9210.31 7719.99 7451.44 6270.77 5727.17 5645.73 5883.27 6976.22 5429.81 4969.45 4670.06 5890.39 5491.59 4656.29 4579.96 4332.27 3577.59 9872.41 6459.56 5272.75 4749.69 3459.6 3432.13
threshold=14.902380952380954 8.603030303030307 21.954451345755697 5.301162790697675 11.303846153846155 28.036363636363639 18.601724137931033 3.5968750000000012 0.38093070850000005 1.2857142857142858 0.30020000000000008 0.49695050550000003 8.5000000000000018 0.6296466675000002 35.031250000000007 7.8016393442622967 20.422619048000005 -0.083333333333332579 0.71905805950000012 23.579831932773114 101.85000000000001 34.583333333333336 100.13666666666668 29.345238095000003 0.5425233960000001 0.37227292950000007 24.269696970000002 13.20294117647059 110.16500000000001 27.577380952000002
decision_type=2 2 2 2 2 2 2 2 2 2 2 2 2 2 2 2 2 2 2 2 2 2 2 2 2 2 2 2 2 2
left_child=1 3 6 7 8 17 11 -1 29 15 16 22 13 14 -8 -5 -10 19 -19 20 -4 28 -2 24 26 -25 -6 -27 -7 -3
right_child=2 4 5 9 23 21 12 -9 10 -11 -12 -13 -14 -15 -16 -17 -18 18 -20 -21 -22 -23 -24 25 -26 27 -28 -29 -30 -31
leaf_value=-0.18709165430742941 0.22239688877235878 0.047029764936058142 0.25693790185299559 -0.096347786235232741 0.18705621990100527 0.26870339246920066 0.29815244306273508 -0.13705978774347216 -0.0055667799580870429 0.1041525808138038 0.0024051233819031188 0.1109474422685264 0.093943106529344428 0.1659076331034261 0.18210832388589981 -0.053311049036204074 -0.10132140035887358 0.38532349108029362 0.28393764654100145 0.32372218039983425 0.027207525058056972 0.64062686641222311 0.10150069309693334 0.12981282054526475 0.0069761838226987029 -0.029480931429475773 0.082743587499617743 0.045868065747517665 0.44288420272800794 -0.015151259324236943
leaf_weight=7799.2519320813008 928.9627222486306 1978.6764855573419 181.16094060358591 9155.9507532280404 535.82899545598775 143.8851659540087 1410.4814276054967 5920.6179063511081 701.61738578602672 188.3731861251872 1802.4411509654019 2870.3939581550658 307.11170255206525 924.36862976523116 748.10498914471827 3741.0016865334474 1602.6411103641149 1476.6490037504118 934.9240735701751 466.38387117371894 141.02466028905474 115.46176905976608 392.9822850653436 494.14687177818269 1476.5573932395782 1319.270475437399 2389.6254398075398 1740.6169120881241 1223.622427851893 1333.864847879624
leaf_count=6496 743 2214 162 9585 532 115 1188 6356 458 136 3025 3349 129 1032 838 4058 1658 1123 1079 480 48 91 789 377 862 1342 2180 1640 725 1636
internal_value=9.27608e-05 -0.0713152 0.245591 -0.124374 0.0211976 0.363391 0.172641 -0.16556 -0.0120509 -0.0811439 -0.0395153 0.135122 0.218768 0.231025 0.258456 -0.0838908 -0.072247 0.325182 0.346693 0.257611 0.15838 0.444461 0.186987 0.0521928 0.0702678 0.0297336 0.102141 0.0133814 0.425614 0.0220016
internal_weight=54446 42180.5 12265.5 26805.2 15375.3 4683.11 7582.41 13719.9 7419.24 13085.3 4106.7 4192.34 3390.07 3082.96 2158.59 12897 2304.26 3200.14 2411.57 788.569 322.186 1482.97 1321.95 7956.05 4402.01 3554.03 2925.45 3059.89 1367.51 3312.54
internal_count=54446 42555 11891 26631 15924 3823 8068 12852 8991 13779 5141 4881 3187 3058 2026 13643 2116 2892 2202 690 210 931 1532 6933 3574 3359 2712 2982 840 3850
is_linear=0
shrinkage=0.03


Tree=11
num_leaves=31
num_cat=0
split_feature=0 0 1 0 0 0 0 28 0 32 32 0 32 1 31 32 3 1 32 32 0 32 1 3 32 32 0 31 23 31
split_gain=1.08027e+06 186902 134528 44643.6 42312.1 18466.9 10930.5 10196.3 9910.06 7213.1 8259.89 6789.92 6892.09 5303.48 5244.24 5063.9 4884.84 4822.74 4514.5 4189.25 4181.68 4299.09 4431.58 3837.91 3795.23 3782.79 3906.35 4302.65 3611.94 3460.02
threshold=13.100000000000001 20.300000000000001 5.5277777777777786 26.300000000000001 9.1000000000000014 15.900000000000002 2.7000000000000006 1.0000000180025095e-35 5.7000000000000002 0.3982448950000001 0.41090981650000008 31.900000000000002 0.80770776900000019 16.414285714285715 10.348484848500002 0.30000218500000003 9.4050000000000029 1.5277777777777779 0.61782323450000021 0.20853403450000005 24.500000000000004 0.64839312500000013 23.31666666666667 9.9150000000000009 0.37500505250000005 0.49695050550000003 16.700000000000006 29.919871795000002 107.80500000000002 27.031250000000004
decision_type=2 2 2 2 2 2 2 2 2 2 2 2 2 2 2 2 2 2 2 2 2 2 2 2 2 2 2 2 2 2
left_child=2 5 6 20 8 18 -1 9 -4 -6 -11 12 16 24 -10 -16 -5 -8 29 -19 21 -3 -23 -14 -9 -7 27 -27 -22 -2
right_child=1 3 4 11 7 25 17 13 14 10 -12 -13 23 -15 15 -17 -18 19 -20 -21 28 22 -24 -25 -26 26 -28 -29 -30 -31
leaf_value=-0.1976541930514904 0.11817508409177917 0.27656079724068794 -0.1430225678420799 0.39229927001711284 0.018771045136966712 0.20306666406145124 -0.20173807016608591 0.054453036464418361 0.16688083610440482 -0.14785009402287355 -0.033840184214046942 0.51409974363655797 0.34049622985453243 0.19636637639576004 -0.032058746241458456 -0.084731034142092959 0.54034511509448024 -0.09202716074805721 -0.037135392001695668 -0.14438250378686868 0.14443341781007654 0.15452839932066786 0.26317211917228223 0.13046278248277673 0.0033344317942737103 0.15420754502937567 0.15505089186055501 -0.018470689762153908 0.3387844185304974 0.064850018142805735
leaf_weight=4636.0591791984625 1745.958482058486 1819.5841140069533 2078.0158725737128 826.42312729428522 1596.1467114603147 1313.338188968366 1098.9741867138073 1902.0397238549776 78.411181637318805 726.27588154585101 2650.2523024131078 628.48258558940142 573.54020745912567 151.47493506339379 2143.0407354568597 7167.7014460691717 341.77630825759843 1732.5124920646194 288.48248005169444 7474.8863003056031 107.24937975243665 781.85586152668111 645.34708124632016 100.66439176211134 4159.8488402527291 246.04986951872706 3262.7213430420961 266.79773957235739 885.65039746975526 3016.4388132812455
leaf_count=4552 1523 1992 2757 814 1316 1578 683 2426 99 562 2113 530 463 116 2143 7603 252 1426 254 7399 123 595 631 109 4602 261 3042 357 797 3328
internal_value=0.00010052 0.19967 -0.0893607 0.32245 -0.043254 0.118293 -0.159221 -0.0017349 -0.0837355 -0.0337343 -0.05855 0.424113 0.3921 0.0238789 -0.0705433 -0.0726328 0.437744 -0.141844 0.0775259 -0.134588 0.262767 0.245214 0.204412 0.31035 0.0194081 0.158637 0.14293 0.0650355 0.318635 0.0845063
internal_weight=54446 16850.4 37595.6 6710.57 22653.2 10139.8 14942.4 11186 11467.2 4972.67 3376.53 2470.89 1842.4 6213.36 9389.15 9310.74 1168.2 10306.4 5050.88 9207.4 4239.69 3246.79 1427.2 674.205 6061.89 5088.91 3775.57 512.848 992.9 4762.4
internal_count=54446 16649 37797 6306 23737 10343 14060 11135 12602 3991 2675 2168 1638 7144 9845 9746 1066 9508 5105 8825 4138 3218 1226 572 7028 5238 3660 618 920 4851
is_linear=0
shrinkage=0.03


Tree=12
num_leaves=31
num_cat=0
split_feature=0 1 0 0 1 0 0 1 0 0 32 32 27 32 3 32 5 0 32 27 3 32 0 3 3 1 23 3 12 32
split_gain=1.01713e+06 166703 134910 32275.8 31059.4 28317.9 14673.4 11567.7 11023.5 6601.05 5823.28 5455.37 5495.3 4640.22 5031.25 4630.42 4872.91 5434.03 3941.92 3870.68 3803.68 3581.75 4595.42 4041.72 3829.87 3611.91 3548.57 3150.8 3126 3024.64
threshold=14.700000000000001 7.6333333333333337 24.500000000000004 11.100000000000001 3.535714285714286 19.100000000000005 5.1000000000000005 16.350000000000005 31.300000000000001 7.9000000000000012 0.37802251650000002 0.47228494300000007 1.750000000000002 0.48714249800000003 6.0650000000000004 0.62534062850000016 92.500000000000014 17.500000000000004 0.21644754100000005 -0.19999999999999971 7.1350000000000007 0.86639970050000015 26.300000000000001 9.4050000000000029 9.9150000000000009 28.450000000000003 107.80500000000002 7.8050000000000006 1.0000000180025095e-35 0.30000218500000003
decision_type=2 2 2 2 2 2 2 2 2 2 2 2 2 2 2 2 2 2 2 2 2 2 2 2 2 2 2 2 2 2
left_child=1 4 5 7 28 15 18 9 21 29 -11 12 20 14 -8 16 -2 -18 -6 -7 -5 22 26 -24 25 -23 -4 -15 -1 -3
right_child=2 3 8 11 6 19 13 -9 -10 10 -12 -13 -14 27 -16 -17 17 -19 -20 -21 -22 24 23 -25 -26 -27 -28 -29 -30 -31
leaf_value=-0.18473852095608823 0.097800977580098716 -0.0076641206541324582 0.14078190449668765 0.042971199549402823 -0.082470420185549537 0.16800367589160675 -0.081124251712936898 0.20340585387082116 0.49227504611197387 0.00063937366928840025 -0.052752031286610046 0.0070703441280034135 0.26159816509460099 -0.14886720159955621 0.0080723640058477254 0.053433234730437845 0.13259116960381798 0.22041603654899522 -0.15800640926167031 0.23853463566799019 0.1168656917627529 0.069187120237741331 0.37057260409798565 0.49839253231292729 0.062849218981879257 0.35091065266194005 0.33424535938277206 0.1608968939705262 -0.13406041071372379 -0.10850683419669935
leaf_weight=6834.9150626948103 2081.9403947722167 316.89128516963683 106.37762796715833 3826.379298298154 756.28697662707418 948.70471092523076 8142.3718212412205 165.87858063937165 696.199773598928 2912.3866683109663 4978.0250568513293 2716.6386659038253 114.59624917339534 1064.8848300916143 610.6356928339228 739.90711661265232 2340.3646374552045 895.48065809160471 4063.1478401618078 3549.3283691802062 749.01094266027212 51.683422281872481 1043.3829431512859 365.02394476067275 74.127711648121476 267.51495110569522 859.47602307097986 26.432437864132226 1388.9387686580885 1759.0676976661198
leaf_count=5891 2411 424 120 3845 739 783 7706 70 635 3207 4971 2833 82 865 734 574 2341 838 4940 3557 828 37 995 320 44 168 769 24 1249 2446
internal_value=0.000106104 -0.0762543 0.220248 -0.00665623 -0.129574 0.166797 -0.103334 -0.0414434 0.382658 -0.0456201 -0.0330552 0.0409264 0.0605056 -0.0822572 -0.0748989 0.124269 0.134063 0.157203 -0.146254 0.223865 0.0551857 0.354239 0.36885 0.405357 0.262482 0.307112 0.313788 -0.140651 -0.176268 -0.093176
internal_weight=54446 40426.5 14019.5 17538.9 22887.6 10555.7 14663.8 10132.2 3463.79 9966.37 7890.41 7406.63 4689.99 9844.32 8753.01 6057.69 5317.79 3235.85 4819.43 4498.03 4575.39 2767.59 2374.26 1408.41 393.326 319.198 965.854 1091.32 8223.85 2075.96
internal_count=54446 40854 13592 18706 22148 10504 15008 11118 3088 11048 8178 7588 4755 9329 8440 6164 5590 3179 5679 4340 4673 2453 2204 1315 249 205 889 889 7140 2870
is_linear=0
shrinkage=0.03


Tree=13
num_leaves=31
num_cat=0
split_feature=0 0 1 0 0 0 0 28 0 31 19 30 25 30 27 1 22 0 23 3 22 27 6 23 23 5 3 27 0 3
split_gain=957983 165937 119385 39420.6 37579.2 16330.2 9946.81 9309.34 8990.84 7535.28 7459.01 6384.32 5331.85 4642.45 4411.81 4345.18 3769.7 3661.1 3186.98 3172.34 3073.5 3017.63 3583.8 2954.17 2927.53 2784.43 2957.92 3743.9 2604.44 2559.55
threshold=13.100000000000001 20.300000000000001 5.5277777777777786 26.300000000000001 9.1000000000000014 15.900000000000002 2.7000000000000006 1.0000000180025095e-35 6.9000000000000012 10.550505050500002 0.14935000000000001 7.5000000000000009 15.519230769230772 1.5000000000000002 1.7142857142857151 1.5277777777777779 100.65000000000002 24.500000000000004 107.80500000000002 5.8150000000000004 100.25000000000001 -0.19999999999999971 -4.2499999999999991 114.65500000000002 115.09500000000001 92.500000000000014 7.5550000000000006 -0.37500000000000039 5.7000000000000002 7.3550000000000013
decision_type=2 2 2 2 2 2 2 2 2 2 2 2 2 2 2 2 2 2 2 2 2 2 2 2 2 2 2 2 2 2
left_child=2 5 6 17 8 -2 -1 10 28 -10 -6 16 14 -12 -9 -8 23 21 -19 -17 -21 -3 -23 -5 -20 -7 29 -28 -4 -27
right_child=1 3 4 11 7 25 15 12 9 -11 13 -13 -14 -15 -16 19 -18 18 24 20 -22 22 -24 -25 -26 26 27 -29 -30 -31
leaf_value=-0.18660334266984346 0.073031995991382007 0.17410910879569402 -0.13517581969292267 0.25388814701958567 0.012859552011626543 0.12385870548220421 -0.19021284220146642 0.011331185552474922 0.22310622707023145 -0.059376943506540582 -0.1265828910307904 0.29591202212890433 0.14181627624008433 -0.040279111585938616 0.14964533267312666 -0.12962135191443425 0.45054449357738652 0.13625894482426382 0.36290685343776996 -0.12970674755582301 0.065138205965656171 0.0082104278677228859 0.25238281086114833 0.41325838060825187 0.24032956589795818 0.15783584351392493 0.01213513389033517 0.24287369378170226 -0.090486373327238828 0.0047997139018570462
leaf_weight=4636.0591791984625 5050.8797753914259 717.53838867973536 2078.0158725737128 230.0654325755313 1987.5877931150608 2266.4460713046137 1098.9741867138073 5685.9389829549473 81.29922472499311 6452.5925090757664 748.20936468942091 493.07551992125809 316.91360165295191 2236.8777376147918 210.51091456320137 8924.6424054815434 1470.8862730418332 107.24937975243665 555.88402539398521 132.74393593892455 150.01245094975457 55.786258462117985 2473.4624096381012 276.85939482389949 329.76637207577005 1968.422419349663 70.484809311106801 679.48550929338671 2855.2616293625906 104.06833184277639
leaf_count=4552 5105 579 2757 592 2077 2394 683 6642 73 6704 1174 152 377 740 125 8551 930 123 536 135 139 84 2555 494 261 1971 92 697 3068 84
internal_value=0.000111486 0.188046 -0.0841341 0.303735 -0.0406998 0.111369 -0.149945 -0.00157158 -0.0788501 -0.0556919 -0.0321476 0.399269 0.0229028 -0.0620916 0.0163943 -0.133372 0.424218 0.247649 0.299958 -0.126486 -0.0269467 0.231212 0.24703 0.344144 0.318888 0.149307 0.169482 0.221432 -0.109431 0.150189
internal_weight=54446 16850.4 37595.6 6710.57 22653.2 10139.8 14942.4 11186 11467.2 6533.89 4972.67 2470.89 6213.36 2985.09 5896.45 10306.4 1977.81 4239.69 992.9 9207.4 282.756 3246.79 2529.25 506.925 885.65 5088.91 2822.46 749.97 4933.28 2072.49
internal_count=54446 16649 37797 6306 23737 10343 14060 11135 12602 6777 3991 2168 7144 1914 6767 9508 2016 4138 920 8825 274 3218 2639 1086 797 5238 2844 789 5825 2055
is_linear=0
shrinkage=0.03


Tree=14
num_leaves=31
num_cat=0
split_feature=0 0 1 0 0 0 0 1 0 0 12 32 32 22 2 32 32 1 32 2 32 32 22 32 0 31 31 2 31 31
split_gain=901577 156212 112343 37140.1 35446.6 15370.9 13273.1 10765 9358.94 8266.63 8250.23 5413.84 5343.49 4550.79 4534.55 4435.68 4218.88 4962.48 4169.12 4115.85 3737.24 3672.38 3590.74 3514.21 3502.47 4071.96 3297.84 3203.65 3201.86 3042.4
threshold=13.100000000000001 20.300000000000001 5.5277777777777786 25.300000000000001 7.5000000000000009 15.900000000000002 10.100000000000001 15.316666666666668 2.7000000000000006 31.900000000000002 1.0000000180025095e-35 0.42812787350000009 0.37802251650000002 104.95000000000002 13.20294117647059 0.28915424850000004 0.64839312500000013 23.31666666666667 0.61782323450000021 3.3011627906976755 0.75553897750000021 0.49695050550000003 107.35000000000001 0.82457772850000011 16.700000000000006 29.919871795000002 27.031250000000004 22.103571428571435 35.292857143000006 36.757352941000008
decision_type=2 2 2 2 2 2 2 2 2 2 2 2 2 2 2 2 2 2 2 2 2 2 2 2 2 2 2 2 2 2
left_child=2 5 8 16 15 18 7 12 -1 13 19 14 -6 20 -8 -4 27 -18 26 -10 -5 -7 -13 -19 25 -23 -2 -3 -9 -29
right_child=1 3 4 9 6 21 11 28 10 -11 -12 22 -14 -15 -16 -17 17 23 -20 -21 -22 24 -24 -25 -26 -27 -28 29 -30 -31
leaf_value=-0.18101126838835996 0.11040584982085849 0.24003921015572019 -0.051228572633678908 0.36948394681054048 -0.018148252402307094 0.18851993815910487 0.030618418432732473 0.10541722629691641 -0.17224246697292339 0.47175413255425169 -0.067458687297887121 -0.016829498617381759 -0.066091762414914171 0.50020757093732293 0.16570592954092073 -0.11013302173991521 0.13795914563980705 0.25954244885386601 -0.039302703560574963 -0.12694602303359678 0.28666905079005367 0.14252745079090376 0.23586036521736523 0.028972136480729261 0.14088959483551436 -0.025360714355208588 0.058380567791399031 0.39449399689694292 0.3953885571029721 0.16459129208995421
leaf_weight=4636.0591791984625 1745.958482058486 1578.928503136849 1492.2617141522933 1229.1449211165309 3758.5887440559454 1313.338188968366 3659.3042257842608 123.49218850699253 2686.0374398836866 628.48258558940142 1644.6707921335474 3317.5635386244394 4731.5302145099267 173.63998310104944 233.71751354821026 5244.3701726398431 814.66741880355403 813.93173732492141 288.48248005169444 5975.6647470667958 1061.0569943101145 246.04986951872706 46.401930034160614 65.760093186050653 3262.7213430420961 266.79773957235739 3016.4388132812455 267.74303618096747 45.977388471364975 77.218181615229696
leaf_count=4552 1523 1863 1825 1020 4122 1578 3552 69 1805 530 2115 3442 4566 120 314 5825 649 821 254 5588 967 261 12 59 3042 357 3328 176 10 101
internal_value=0.00011573 0.182434 -0.0816121 0.294681 -0.0394782 0.108037 -0.0150515 -0.040121 -0.145453 0.371241 -0.129376 0.0148683 -0.044892 0.344692 0.0389344 -0.0971347 0.228824 0.192842 0.0708432 -0.141086 0.33183 0.144845 -0.0129946 0.242585 0.129419 0.0557568 0.0775527 0.259923 0.19325 0.346161
internal_weight=54446 16850.4 37595.6 6710.57 22653.2 10139.8 15916.6 8659.59 14942.4 3092.32 10306.4 7256.99 8490.12 2463.84 3893.02 6736.63 3618.25 1694.36 5050.88 8661.7 2290.2 5088.91 3363.97 879.692 3775.57 512.848 4762.4 1923.89 169.47 344.961
internal_count=54446 16649 37797 6306 23737 10343 16087 8767 14060 2637 9508 7320 8688 2107 3866 7650 3669 1529 5105 7393 1987 5238 3454 880 3660 618 4851 2140 79 277
is_linear=0
shrinkage=0.03


Tree=15
num_leaves=31
num_cat=0
split_feature=1 1 1 1 1 1 32 31 1 32 1 32 31 32 31 31 3 2 25 32 1 32 1 31 5 22 30 3 26 32
split_gain=805076 161005 98864.5 29237.8 24315.8 22437 8044.18 8406.8 7681.88 8785.83 7142.9 6461.28 7819.47 6323.87 10139.5 6031.76 5907.44 5832.38 5570.08 5172.79 5075.86 4916.55 7081.01 4972.53 4915.94 4799.53 4549.35 4380.26 4359.57 4252.23
threshold=14.633333333333335 7.9500000000000011 23.750000000000004 5.3166666666666673 11.316666666666668 19.450000000000003 0.38093070850000005 26.904545454500003 28.050000000000004 0.71905805950000012 3.3166666666666669 0.61074317050000015 35.550505050500007 0.42812787350000009 27.577380952000002 29.825757575500003 7.9450000000000012 22.103571428571435 21.792857142857148 0.3203854845000001 13.550000000000002 0.54507995850000013 17.050000000000004 31.343137254500004 92.500000000000014 102.75000000000001 7.5000000000000009 7.8050000000000006 8.507142857142858 0.25991214650000005
decision_type=2 2 2 2 2 2 2 2 2 2 2 2 2 2 2 2 2 2 2 2 2 2 2 2 2 2 2 2 2 2
left_child=1 3 5 10 6 21 16 -8 9 25 -1 18 17 14 -6 -15 28 -13 26 -18 -16 22 23 -2 -24 -4 -7 -20 -3 -5
right_child=2 4 8 29 13 11 7 -9 -10 -11 -12 12 -14 15 20 -17 19 -19 27 -21 -22 -23 24 -25 -26 -27 -28 -29 -30 -31
leaf_value=-0.16397697854332927 0.15909482330892974 -0.044009488613618683 0.31351464465628975 -0.027387557000313738 0.20486001626733077 0.24741684046299436 -0.033873449987990689 -0.1302206518741684 0.38960544728254504 0.23826822928560495 -0.12096284177607208 0.15453376177445854 0.02888625758324152 0.040476923665096622 0.029758159733497516 -0.04285964437079634 0.3611116180369468 0.26045930421088581 0.25109456925722534 0.040948161570906166 0.13661365304336953 0.08293115639063231 0.12165827783942806 0.069521956040546506 0.25382351747234122 0.47297316718420274 0.090938014587183244 0.45105725965972371 0.017718289965067174 -0.083922313625921521
leaf_weight=7395.3330667547416 1000.3690462852828 1636.4743668015581 581.23236403474584 1409.2578238700517 481.69231218914501 951.02928125555627 4225.4472605988849 1007.1231571515091 1582.9510355922394 1091.2298167669214 6753.6324799729045 1221.541610611137 286.45094801927917 3826.9409319034312 1784.1481949172448 977.42549629718997 69.024659832473844 798.85236978926696 241.11177684715949 121.73407345172018 512.66888104449026 2403.2699266134296 435.40295040700585 1287.8904664327856 662.15312779834494 291.6301366451662 212.61871819384396 206.58746025874279 2758.0311841964722 8232.7452349348459
leaf_count=6495 1199 2031 771 1374 546 1144 4830 957 1296 1079 6850 1154 287 3398 1674 996 74 442 220 168 470 2499 705 1552 555 187 63 126 2784 8520
internal_value=0.00012211 -0.0653181 0.203446 -0.116034 0.00403501 0.153778 -0.0271253 -0.0525271 0.338962 0.297252 -0.143496 0.209264 0.176206 0.0443728 0.0803648 0.0234924 0.00188474 0.196963 0.255891 0.163138 0.0538607 0.116072 0.139434 0.108949 0.202196 0.369199 0.21935 0.347362 -0.00528906 -0.0756793
internal_weight=54446 41191.7 13254.3 23791 17400.7 9707.28 9817.83 5232.57 3547.04 1964.09 14149 3918.19 2306.84 7582.88 2778.51 4804.37 4585.26 2020.39 1611.35 190.759 2296.82 5789.09 3385.82 2288.26 1097.56 872.863 1163.65 447.699 4394.51 9642
internal_count=54446 41167 13279 23239 17928 9946 10844 5787 3333 2037 13345 3436 1883 7084 2690 4394 5057 1596 1553 242 2144 6510 4011 2751 1260 958 1207 346 4815 9894
is_linear=0
shrinkage=0.03


Tree=16
num_leaves=31
num_cat=0
split_feature=0 1 0 0 1 0 0 1 0 0 32 32 27 32 5 0 32 0 32 27 32 27 31 32 31 12 31 2 32 0
split_gain=802210 130199 106385 26073.8 24509.3 22374 12389.9 9540.27 9310.47 5399.75 5118.68 5044.06 4950.85 4307.74 4367.16 4509.99 4247.5 4027.17 3707.02 3636.88 3641.53 3440.28 3295.05 3587.99 2937.83 2880.8 2808.26 2786.32 2763.28 2726.19
threshold=14.700000000000001 7.6333333333333337 24.500000000000004 11.100000000000001 3.535714285714286 19.100000000000005 5.1000000000000005 16.350000000000005 31.100000000000005 7.9000000000000012 0.47228494300000007 0.37802251650000002 1.3333333333333328 0.62534062850000016 92.500000000000014 17.500000000000004 0.48714249800000003 7.3000000000000016 0.21644754100000005 1.2 0.73610926850000014 -0.19999999999999971 27.360389610500004 0.53996881800000007 32.559027778000008 1.5000000000000002 18.806250000000002 14.214754098360659 0.30000218500000003 13.300000000000002
decision_type=2 2 2 2 2 2 2 2 2 2 2 2 2 2 2 2 2 2 2 2 2 2 2 2 2 2 2 2 2 2
left_child=1 4 5 7 25 13 18 9 19 28 12 -11 27 14 26 -16 17 -8 -6 20 -4 -7 23 -12 -9 -1 -2 -5 -3 -24
right_child=2 3 8 10 6 21 16 24 -10 11 22 -13 -14 -15 15 -17 -18 -19 -20 -21 -22 -23 29 -25 -26 -27 -28 -29 -30 -31
leaf_value=-0.16165464253361481 0.34362799513984243 -0.0025943998747612108 0.33611765307386487 0.042038475388670643 -0.069225244621248905 0.14644189120254913 -0.081372308626237302 0.060699474818110812 0.43312687533569988 0.001484137320443675 0.071709997154865937 -0.048205167241816546 0.21576999309409159 0.042147122313116854 0.11928137224387864 0.19927388206792276 -0.1279694871848569 -0.0395407325364674 -0.14231579878927872 0.43927411512138792 0.25838958143650015 0.21268661841111372 -0.10795309668716041 -0.011311946028265352 0.31424121464864768 -0.095751574637323436 0.080561939720683443 0.12401212414100463 -0.098902133398765399 0.0015139342197243995
leaf_weight=7546.1004429487512 32.767707511782646 316.89128516963683 1314.9741327473894 4119.3043311520014 756.28697662707418 948.70471092523076 5341.5518026396167 88.419715212192386 783.39865221898071 2912.3866683109663 839.4388066381216 4978.0250568513293 162.89507266506553 739.90711661265232 2340.3646374552045 895.48065809160471 1091.3172679557465 3411.4557114355266 4063.1478401618078 206.78705129818991 1158.626561320154 3549.3283691802062 356.19049499602988 1049.1863491700497 77.458865427179262 677.7533884041477 2049.172687260434 407.78708631475456 1759.0676976661198 471.82301509962417
leaf_count=6427 17 424 1114 4054 739 783 5362 49 678 3207 896 4971 126 574 2341 838 889 3078 4940 148 1148 3557 488 807 21 713 2394 575 2446 642
internal_value=0.000128948 -0.0676859 0.195634 -0.00617786 -0.114807 0.148169 -0.0914984 -0.0374446 0.339857 -0.0412379 0.0365894 -0.0298734 0.0555543 0.110367 0.119808 0.141696 -0.0721344 -0.0651022 -0.130933 0.311835 0.300311 0.198896 0.00380104 0.0256729 0.184912 -0.156287 0.0855229 0.0495544 -0.0842497 -0.0459233
internal_weight=54446 40426.5 14019.5 17538.9 22887.6 10555.7 14663.8 10132.2 3463.79 9966.37 7406.63 7890.41 4689.99 6057.69 5317.79 3235.85 9844.32 8753.01 4819.43 2680.39 2473.6 4498.03 2716.64 1888.63 165.879 8223.85 2081.94 4527.09 2075.96 828.014
internal_count=54446 40854 13592 18706 22148 10504 15008 11118 3088 11048 7588 8178 4755 6164 5590 3179 9329 8440 5679 2410 2262 4340 2833 1703 70 7140 2411 4629 2870 1130
is_linear=0
shrinkage=0.03


Tree=17
num_leaves=31
num_cat=0
split_feature=0 0 1 0 0 0 0 1 0 29 0 32 32 3 32 32 32 1 32 32 31 27 31 0 31 3 32 31 0 31
split_gain=755288 130585 93388.4 31797.7 30214.8 12804.2 11187.5 9111.57 8277.84 5852.54 5202.67 6071.52 4964.86 7328.35 4705.66 3985.77 3866.14 3639.02 4007.97 3593.94 3199.37 3198.76 3191.96 3044.95 3888.51 2981.07 2959.6 2860.09 2771.23 2733.76
threshold=13.100000000000001 20.300000000000001 5.5277777777777786 26.300000000000001 7.5000000000000009 15.900000000000002 10.100000000000001 15.316666666666668 2.7000000000000006 34.071428571428577 33.300000000000004 0.70461043300000015 0.42812787350000009 7.1350000000000007 0.37802251650000002 0.28915424850000004 0.61782323450000021 1.5277777777777779 0.17435221400000003 0.49695050550000003 29.919871795000002 -0.74999999999999456 27.031250000000004 16.700000000000006 29.919871795000002 8.0150000000000023 0.32364228300000003 35.292857143000006 4.5000000000000009 25.031250000000004
decision_type=2 2 2 2 2 2 2 2 2 2 2 2 2 2 2 2 2 2 2 2 2 2 2 2 2 2 2 2 2 2
left_child=2 5 8 21 15 16 7 14 -1 10 11 -5 13 -8 -6 -4 22 -10 -19 25 -14 -3 -2 24 -21 -7 -24 -9 -20 -25
right_child=1 3 4 9 6 19 12 27 17 -11 -12 -13 20 -15 -16 -17 -18 18 28 23 -22 -23 26 29 -26 -27 -28 -29 -30 -31
leaf_value=-0.1663100480615913 0.10380343309302034 0.14264951257206415 -0.045988117464654803 0.41844735294449598 -0.016014573771805964 0.15421920208767512 0.022376204039059926 0.095206563007228739 -0.16974647341628357 0.53998287433153036 0.46827875629139676 0.29190468827715249 0.00022836437173588648 0.15438332110331743 -0.061003799769766442 -0.10180782414891765 -0.040998024215426046 -0.051890545930814616 -0.13804228305973359 0.13354493365664039 -0.077904171423868629 0.22864008477051345 0.27381299733657238 0.24677515644250356 -0.030452212494034379 0.27825825434094559 0.048559399054048345 0.36886419061621717 -0.10255581404307201 0.12131218452336308
leaf_weight=4636.0591791984625 1745.958482058486 471.01345334690996 1492.2617141522933 488.60835858853534 3758.5887440559454 1096.4014328103513 3472.7410363201052 123.49218850699253 1098.9741867138073 155.94305741018616 281.07192262704484 1545.2632817367557 2801.9156274700072 420.28070301236585 4731.5302145099267 5244.3701726398431 288.48248005169444 926.93478361866437 3610.1531079714186 246.04986951872706 562.04984118859284 3768.6733806552365 48.755298791220412 165.64699280867353 266.79773957235739 216.93675615801476 2967.6835144900251 45.977388471364975 4670.3109007801395 3097.0743502334226
leaf_count=4552 1523 351 1825 393 4122 1279 3341 69 683 148 288 1339 2852 525 4566 5825 254 677 3856 261 602 3787 54 163 357 299 3274 10 4292 2879
internal_value=0.000131893 0.167004 -0.0746721 0.269633 -0.0362566 0.0989831 -0.0137044 -0.0367203 -0.132879 0.355425 0.341849 0.323264 0.0137642 0.036811 -0.0411099 -0.0894885 0.065035 -0.117765 -0.111471 0.132578 -0.0129178 0.21927 0.0714973 0.117362 0.0487298 0.175697 0.0526523 0.17798 -0.118103 0.128054
internal_weight=54446 16850.4 37595.6 6710.57 22653.2 10139.8 15916.6 8659.59 14942.4 2470.89 2314.94 2033.87 7256.99 3893.02 8490.12 6736.63 5050.88 10306.4 9207.4 5088.91 3363.97 4239.69 4762.4 3775.57 512.848 1313.34 3016.44 169.47 8280.46 3262.72
internal_count=54446 16649 37797 6306 23737 10343 16087 8767 14060 2168 2020 1732 7320 3866 8688 7650 5105 9508 8825 5238 3454 4138 4851 3660 618 1578 3328 79 8148 3042
is_linear=0
shrinkage=0.03


Tree=18
num_leaves=31
num_cat=0
split_feature=0 0 0 1 0 0 1 12 0 32 0 3 22 1 0 32 5 0 32 3 31 27 32 2 23 0 32 32 27 31
split_gain=711243 115487 94710.2 42813.3 21896 12502.5 8743.18 7314.74 7053.85 5512.68 5155.91 5112.74 4816.86 4426.07 4267.25 3992.42 4108.39 4112.6 3563.46 3701.84 3259.97 2984.84 3091.55 5561.03 4009.86 2952.74 2866.03 2842.19 3819.32 3167.1
threshold=14.700000000000001 10.100000000000001 25.100000000000005 5.3166666666666673 19.100000000000005 7.3000000000000016 15.316666666666668 1.0000000180025095e-35 31.300000000000001 0.36207981100000003 3.5000000000000004 7.9450000000000012 104.95000000000002 3.3166666666666669 11.100000000000001 0.62534062850000016 92.500000000000014 17.500000000000004 0.75553897750000021 9.4950000000000028 27.148351648500004 -0.19999999999999971 0.65942213550000017 21.954451345755697 105.39500000000002 5.7000000000000002 0.30512856700000007 0.47228494300000007 1.3333333333333328 31.792857143000003
decision_type=2 2 2 2 2 2 2 2 2 2 2 2 2 2 2 2 2 2 2 2 2 2 2 2 2 2 2 2 2 2
left_child=1 3 4 7 15 25 20 13 12 11 -9 -3 18 -1 -11 16 -2 -18 -4 -20 -7 -6 23 -23 -24 -5 -27 28 -16 -29
right_child=2 9 8 5 21 6 -8 10 -10 14 -12 -13 -14 -15 27 -17 17 -19 19 -21 -22 22 24 -25 -26 26 -28 29 -30 -31
leaf_value=-0.15856965004896922 0.079751436114542329 0.060616851611308961 0.32470597083805219 -0.11765382448505499 0.14183926737221633 -0.031069722433343022 0.173041808743467 -0.12815088644323899 0.41546924273379343 -0.023818178564483303 -0.039339571241022435 0.2744039634843235 0.4538231106665036 -0.1213111969611317 0.037390737430805149 0.03824645939004459 0.11280921815547514 0.18918284381717895 0.26643223398121191 0.089315521108940477 -0.071961208444315347 0.19981428394870426 -0.069192063805479681 0.31760619760807668 0.17335366509728789 -0.038410663232197599 -0.092107025180752339 0.012960443687245533 0.20314540670767611 -0.10112395849692762
leaf_weight=6131.9142379802652 2081.9403947722167 1486.120739006903 1269.8558972890023 2417.3458886423614 988.98497784906067 6991.0992108306382 169.46957697835751 1146.3832951311488 696.199773598928 1989.3305026039016 1217.5311849222053 103.73739682976156 188.46172817074694 5653.1368286940269 3663.1567819439806 739.90711661265232 2340.3646374552045 895.48065809160471 887.16123522119597 128.24183321720921 2347.4924491969869 2162.0715869446285 62.216456023510545 453.94056867528707 1124.6854207005817 1296.919285482727 2967.3552996178623 2485.4376823226921 124.94193522026762 235.11557944165543
leaf_count=5402 2411 1685 1099 3132 851 7010 79 1189 635 1952 1537 143 120 5217 3653 574 2341 838 715 197 2425 2333 65 355 1058 1386 3099 2499 100 346
internal_value=0.000136494 -0.0637177 0.184224 -0.0929525 0.141958 -0.0596054 -0.0374711 -0.131074 0.32843 0.0242054 -0.0825946 0.0753923 0.303139 -0.140758 0.0145886 0.103899 0.112986 0.134209 0.289742 0.244625 -0.0413835 0.189909 0.202203 0.220827 0.16039 -0.0910491 -0.0758437 0.026339 0.0431223 0.00292812
internal_weight=54446 40426.5 14019.5 30338.6 10849.6 16189.7 9508.06 14149 3169.92 10087.8 2363.91 1589.86 2473.72 11785.1 8497.98 6057.69 5317.79 3235.85 2285.26 1015.4 9338.59 4791.9 3802.91 2616.01 1186.9 6681.62 4264.27 6508.65 3788.1 2720.55
internal_count=54446 40854 13592 30476 10826 17131 9514 13345 2766 10378 2726 1828 2131 10619 8550 6164 5590 3179 2011 912 9435 4662 3811 2688 1123 7617 4485 6598 3753 2845
is_linear=0
shrinkage=0.03


Tree=19
num_leaves=31
num_cat=0
split_feature=0 0 1 0 0 0 0 12 32 1 3 31 29 0 31 0 32 31 1 32 32 3 4 31 31 27 6 0 27 3
split_gain=669986 115903 82677.3 28389.9 23702.7 11284 10459 10943.8 6805.52 9865.46 8135.11 5762.43 5510.88 5263.5 5089.23 4720.5 5677.59 4415.4 4303.18 3581.24 3464.08 3352.89 3337.94 3009.65 2985.59 2918.62 3398 2882.71 2875.4 2792.73
threshold=13.100000000000001 20.300000000000001 6.2111111111111121 26.300000000000001 9.1000000000000014 15.900000000000002 3.3000000000000003 1.0000000180025095e-35 0.3982448950000001 11.414285714285716 8.3150000000000031 26.677083333500004 34.071428571428577 6.9000000000000012 10.550505050500002 33.300000000000004 0.70461043300000015 6.0454545455000011 20.31666666666667 0.61782323450000021 0.49695050550000003 6.0450000000000008 2.5000000000000004 27.031250000000004 27.577380952000002 -0.74999999999999944 -4.3499999999999988 5.1000000000000005 1.1742424242424259 8.0150000000000023
decision_type=2 2 2 2 2 2 2 2 2 2 2 2 2 2 2 2 2 2 2 2 2 2 2 2 2 2 2 2 2 2
left_child=2 5 6 25 13 19 -1 17 10 11 24 -10 15 -4 -15 16 -5 -8 -11 23 29 -9 -12 -2 -6 -3 -27 -19 -28 -7
right_child=1 3 4 12 8 20 7 21 9 18 22 -13 -14 14 -16 -17 -18 27 -20 -21 -22 -23 -24 -25 -26 26 28 -29 -30 -31
leaf_value=-0.15058226356933241 0.098937636022071757 0.13271584694950381 -0.095198375908945143 0.39611670388458869 0.047997032231698919 0.14629450640860295 -0.16285758826805463 -0.044661349666800548 -0.034124817192707782 0.012801047301135269 -0.054528650223454073 -0.12989039872919786 0.51362568613396153 0.26467239576129709 -0.050349650364104589 0.44222970662031102 0.27402762097143246 -0.12600618986737769 0.2770641213275068 -0.040684617860568942 0.10984392444286319 0.12210262096114545 0.35208165728443319 0.04928019143151606 -0.0034563663968000869 0.0015459461068714972 0.21104425145869249 -0.088992038744617058 0.317383809657661 0.26623919803608154
leaf_weight=6062.1775879147463 1745.958482058486 464.29195447009988 3271.188603509916 488.60835858853534 2118.9109141314402 1096.4014328103513 1456.2913953750394 1718.6125435498543 2611.8511955027934 3456.4540711669251 20.815448024775833 719.3574017023202 155.94305741018616 41.609297561924905 6094.4420043951832 281.07192262704484 1545.2632817367557 3489.4101756804157 51.389423562213778 288.48248005169444 3775.5689521331806 110.99414750095457 91.160041279392317 3016.4388132812455 1941.6794299792964 65.991282468196005 3444.1444875937887 4339.2961077727377 265.25910947006196 216.93675615801476
leaf_count=6169 1523 339 3996 393 2397 1279 771 2322 2696 3147 27 698 148 37 6138 288 1339 3474 22 254 3660 153 93 3328 1905 109 3436 3752 254 299
internal_value=0.000139532 0.157306 -0.0703137 0.253993 -0.0294973 0.093223 -0.118811 -0.10142 0.000380659 -0.0180358 0.0305552 -0.0549731 0.335056 -0.064454 -0.0479973 0.321939 0.304265 -0.114633 0.0170656 0.0613528 0.124761 -0.0342311 0.277268 0.0675731 0.0234155 0.206408 0.215278 -0.105562 0.21907 0.167053
internal_weight=54446 16850.4 37595.6 6710.57 20418.9 10139.8 17176.8 11114.6 11011.6 6839.05 4172.57 3331.21 2470.89 9407.24 6136.05 2314.94 2033.87 9285 3507.84 5050.88 5088.91 1829.61 111.975 4762.4 4060.59 4239.69 3775.39 7828.71 3709.4 1313.34
internal_count=54446 16649 37797 6306 21156 10343 16641 10472 10985 6563 4422 3394 2168 10171 6175 2020 1732 7997 3169 5105 5238 2475 120 4851 4302 4138 3799 7226 3690 1578
is_linear=0
shrinkage=0.03


Tree=20
num_leaves=31
num_cat=0
split_feature=0 0 2 0 0 0 12 0 28 2 30 19 0 31 30 32 26 22 32 32 32 26 19 19 32 0 0 31 6 31
split_gain=630537 109112 71972.5 26744.4 26333.9 10621.3 10401.4 7434.48 6369.64 6207.82 5752.51 5366.1 5315.59 5295.44 3855.05 3730.75 3546.01 3509.39 3480.61 3371.29 3264.38 3102.49 2910.23 2879.58 2825.48 2775.58 2725.07 3689.37 2657.96 2645.46
threshold=13.100000000000001 20.300000000000001 6.0056818181818192 26.300000000000001 9.1000000000000014 15.900000000000002 1.0000000180025095e-35 5.7000000000000002 1.0000000180025095e-35 3.5968750000000012 7.5000000000000009 0.14715000000000003 3.5000000000000004 10.550505050500002 1.5000000000000002 0.28382203750000007 19.405882352941177 100.65000000000002 0.30000218500000003 0.61782323450000021 0.49695050550000003 9.4068965517241399 0.028700000000000003 0.022600000000000006 0.33936265000000004 5.1000000000000005 16.700000000000006 29.919871795000002 -4.3499999999999988 25.031250000000004
decision_type=2 2 2 2 2 2 2 2 2 2 2 2 2 2 2 2 2 2 2 2 2 2 2 2 2 2 2 2 2 2
left_child=2 5 6 28 7 19 9 -4 11 -1 17 -6 -8 -9 -13 -10 -17 -5 -15 22 -7 25 23 -2 -24 -11 27 -22 -3 -28
right_child=1 3 4 10 8 20 12 13 15 21 -12 14 -14 18 -16 16 -18 -19 -20 -21 26 -23 24 -25 -26 -27 29 -29 -30 -31
leaf_value=-0.14930685742183683 0.096521345277884862 0.014787590943476561 -0.11967145122463045 0.27362222632023991 0.013975461589611184 0.16208860999539412 -0.11986642468392394 0.19899094193858541 0.14361466698647943 -0.12775414090945503 0.22868419786833802 -0.11265650405620936 -0.040894128923938677 -0.018928486048058798 -0.031266257210307395 0.01359400975739063 0.19683500151516323 0.37327598002366336 -0.066191051990836178 -0.039484876905369497 0.12433398358202211 0.075022154133657745 0.19074407985280881 0.2945462706745206 0.054200386658045746 -0.088762148265305013 0.23319259738432016 -0.03535075641714603 0.20330115913063623 0.11006069038558605
leaf_weight=6201.6814880089369 277.7877726436127 69.420910199638456 1892.8378136334941 506.9248273994308 1878.8711823234335 1313.338188968366 1174.5648208828643 69.132701256778091 210.79234595969319 3630.9873700616881 493.07551992125809 692.57900167442858 2222.2319923241157 1793.0501540682744 2133.1274509807117 5858.666552336188 91.670241096522659 1470.8862730418332 6531.4870463900734 288.48248005169444 246.04986951872706 79.406557216774672 136.98185690864921 86.113116351421922 4261.5145494360477 3134.5530703959521 165.64699280867353 266.79773957235739 4170.265923802508 3097.0743502334226
leaf_count=4639 494 118 2936 1086 1798 1578 1296 64 308 3884 152 1049 3780 1779 706 6607 61 930 6472 254 261 65 152 54 4151 2353 163 357 4020 2879
internal_value=0.000143811 0.152613 -0.0682038 0.246425 -0.0315931 0.0904357 -0.115274 -0.0659837 0.000978289 -0.127461 0.325103 -0.025291 -0.0683421 -0.0538109 -0.051384 0.021044 0.0165824 0.348496 -0.0560303 0.0595154 0.121034 -0.107571 0.0655507 0.146779 0.0586679 -0.10977 0.106553 0.0416933 0.200239 0.116664
internal_weight=54446 16850.4 37595.6 6710.57 21152.2 10139.8 16443.4 10286.5 10865.7 13046.6 2470.89 4704.58 3396.8 8393.67 2825.71 6161.13 5950.34 1977.81 8324.54 5050.88 5088.91 6844.95 4762.4 363.901 4398.5 6765.54 3775.57 512.848 4239.69 3262.72
internal_count=54446 16649 37797 6306 21780 10343 16017 11251 10529 10941 2168 3553 5076 8315 1755 6976 6668 2016 8251 5105 5238 6302 4851 548 4303 6237 3660 618 4138 3042
is_linear=0
shrinkage=0.03


Tree=21
num_leaves=31
num_cat=0
split_feature=0 25 0 0 0 0 25 0 25 0 32 0 32 3 32 32 11 12 0 3 23 23 32 27 32 3 32 32 2 3
split_gain=593909 97133.2 79831.7 19363.5 18161 16478.6 8000.74 7298.46 7097.56 4842.66 4840.93 4386.1 4212.23 4664.67 3927.03 3623.22 3436.38 3157.82 3133.44 3680.92 3126.67 3252.05 3050.42 2911.06 2841.75 2678.89 4121.61 2630.43 5642.32 2513.38
threshold=14.700000000000001 7.5049019607843155 24.500000000000004 11.100000000000001 4.1000000000000005 19.100000000000005 3.011111111111112 31.100000000000005 18.408333333333335 7.7000000000000002 0.35147671050000001 5.9000000000000012 0.47228494300000007 8.2750000000000004 0.3982448950000001 0.62534062850000016 -1.4999999999999998 1.5000000000000002 17.500000000000004 8.0150000000000023 112.21500000000002 113.13500000000001 0.62534062850000016 -0.19999999999999971 0.21644754100000005 7.9850000000000012 0.74596338050000011 0.6296466675000002 18.987804878048781 6.0650000000000004
decision_type=2 2 2 2 2 2 2 2 2 2 2 2 2 2 2 2 2 2 2 2 2 2 2 2 2 2 2 2 2 2
left_child=1 4 5 8 17 15 -6 16 9 -3 -11 24 13 -5 -15 18 25 -1 -2 -20 -18 -22 -13 -7 -8 -4 -27 28 -25 -29
right_child=2 3 7 12 6 23 11 -9 -10 10 -12 22 -14 14 -16 -17 20 -19 19 -21 21 -23 -24 27 -26 26 -28 29 -30 -31
leaf_value=-0.14082466785360967 0.088391286456017654 -0.070148213895049188 0.15517174707371983 0.04248473344147536 -0.13523698629760947 0.12272897624602247 -0.037630415689077497 0.37575855579828044 0.19099110715597092 0.01866337411306267 -0.036115524026851108 -0.052050913806856738 0.0024381335427829513 0.30630108918594828 0.067097536170670713 0.032303310801717708 0.23410270342386916 -0.07512011817185521 0.12110000149039991 0.26080563292754322 0.45800934325648907 0.29973198220656971 -0.13650798531256617 0.1413638147956697 -0.10270240591533757 0.33095868766760811 0.11969770042882864 0.20821285300428097 0.24560912258029624 0.12365847810993932
leaf_weight=7423.7831764954608 3760.2484816520009 2537.510536550777 401.79258575988933 4310.622374431463 1972.1695503988303 948.70471092523076 719.55703026172705 783.39865221898071 122.57924828515388 1934.5326565678697 5779.9516914966516 7513.4662319491617 2656.6116226441227 108.76596952299587 143.72233984107152 739.90711661265232 647.76092052063905 743.90396519401111 1361.9586225850508 195.57858608197421 153.17420538770966 1062.338253933005 403.39304418489337 786.7360511245206 4055.9184370215517 287.72142466064543 127.60035510384478 491.14152317657135 1262.5929132127203 1008.857881666394
leaf_count=7376 4002 3437 343 4308 1407 783 499 678 70 2228 5525 7587 2727 106 143 574 734 938 1297 291 111 853 274 1158 4229 238 131 472 976 951
internal_value=0.000145197 -0.0582048 0.168364 -0.00522614 -0.0990189 0.127248 -0.0789986 0.293297 -0.0314752 -0.0342284 -0.0223737 -0.0702091 0.0324868 0.0499558 0.174146 0.094805 0.268536 -0.134892 0.10346 0.139431 0.291822 0.321484 -0.0564396 0.170782 -0.0929503 0.213965 0.268284 0.183431 0.206038 0.151954
internal_weight=54446 40426.5 14019.5 17594.3 22832.2 10555.7 14664.5 3463.79 10374.6 10252 7714.48 12692.3 7219.72 4563.11 252.488 6057.69 2680.39 8167.69 5317.79 1557.54 1863.27 1215.51 7916.86 4498.03 4775.48 817.114 415.322 3549.33 2049.33 1500
internal_count=54446 40854 13592 18544 22310 10504 13996 3088 11260 11190 7753 12589 7284 4557 249 6164 2410 8314 5590 1588 1698 964 7861 4340 4728 712 369 3557 2134 1423
is_linear=0
shrinkage=0.03


Tree=22
num_leaves=31
num_cat=0
split_feature=0 0 25 0 0 0 0 31 29 23 28 0 30 0 23 25 27 30 0 5 13 31 0 30 21 31 0 18 27 6
split_gain=559219 96817 65860.9 23863.3 16959.1 11300.9 9355.1 8279.93 6230.26 5581.62 5473.96 5216.51 4871.91 4618.91 4553.69 3816.65 3310.81 3102.22 2437.66 2386.52 2655.69 2642.74 2347.32 2292.93 2273.25 2247.91 2923.27 2286.05 2246.99 2098.72
threshold=13.100000000000001 20.300000000000001 7.5049019607843155 25.300000000000001 4.1000000000000005 9.1000000000000014 15.900000000000002 7.7638888890000013 34.071428571428577 112.00500000000001 1.0000000180025095e-35 33.300000000000004 7.5000000000000009 5.9000000000000012 113.55500000000002 15.519230769230772 1.7142857142857151 1.5000000000000002 2.3000000000000003 92.500000000000014 111.53966666666668 25.031250000000004 10.300000000000002 5.5000000000000009 0.07709790200000001 23.031250000000004 7.3000000000000016 0.24795000000000003 -0.077380952380951648 -4.5499999999999989
decision_type=2 2 2 2 2 2 2 2 2 2 2 2 2 2 2 2 2 2 2 2 2 2 2 2 2 2 2 2 2 2
left_child=2 6 4 29 18 25 28 9 11 -6 14 12 -5 -9 17 16 -12 -7 -1 24 -21 -22 -15 -10 -8 26 -4 -28 -2 -3
right_child=1 3 5 8 7 10 19 13 23 -11 15 -13 -14 22 -16 -17 -18 -19 -20 20 21 -23 -24 -25 -26 -27 27 -29 -30 -31
leaf_value=-0.14941204326761301 0.0088159061762229998 0.0055358914695254119 -0.065910440999301573 0.28800285730150177 -0.14739885231731689 -0.09425363910367926 -0.0013403485003063648 -0.091631459338285079 0.36195990624718177 0.07567597012993682 0.011885300162806889 0.40839745931062116 0.18054954829737468 -0.05811719059962208 0.03823693266186149 0.12307617778511973 0.13235678860392061 -0.023331819467524273 -0.11579152111522241 0.059222722960394603 0.25908045561966198 0.13505914946905176 0.011344953192268355 0.63598584051719953 0.10030639800086875 -0.071639778634972812 -0.071116297009298876 0.024249486799274318 0.064615384514452187 0.18234172537608084
leaf_weight=3637.6207767280284 768.24673979706131 61.96787206386216 1111.9213860528544 2132.2737003632355 1805.1856674079318 699.82048954372294 218.69128974457271 4709.1537027559243 114.58610109961592 103.87317164917476 5151.8094955806155 281.07192262704484 504.54685204103589 7552.2460879439022 880.03044992848299 317.1004354369361 208.96353483106941 2645.4537745611742 4530.0663649614435 394.99450981477275 169.09663684177212 2258.369923140388 462.80754340672866 59.845907986164093 2047.754781560041 2555.3870058383327 293.34012446692213 930.85977751668543 4282.6330355943646 3556.2810981837101
leaf_count=3634 736 91 1754 2039 952 1241 220 4761 154 126 6103 288 150 7467 658 378 124 1010 4680 1344 141 1359 602 6 2174 2954 322 1031 4369 3578
internal_value=0.000149644 0.143738 -0.0642167 0.232106 -0.0961963 -0.0149144 0.085168 -0.0768154 0.293465 -0.135087 0.00351595 0.28205 0.267828 -0.0680218 -0.0223225 0.0227495 0.016703 -0.0382914 -0.130849 0.113885 0.132455 0.144219 -0.0540998 0.471161 0.0905105 -0.0521964 -0.0308141 0.00118961 0.0561483 0.17933
internal_weight=54446 16850.4 37595.6 6710.57 22801 14794.7 10139.8 14633.3 3092.32 1909.06 9903.18 2917.89 2636.82 12724.2 4225.3 5677.87 5360.77 3345.27 8167.69 5088.91 2822.46 2427.47 8015.05 174.432 2266.45 4891.51 2336.12 1224.2 5050.88 3618.25
internal_count=54446 16649 37797 6306 22222 15575 10343 13908 2637 1078 9514 2477 2189 12830 2909 6605 6227 2251 8314 5238 2844 1500 8069 160 2394 6061 3107 1353 5105 3669
is_linear=0
shrinkage=0.03


Tree=23
num_leaves=31
num_cat=0
split_feature=0 0 0 1 0 0 1 0 0 32 29 32 31 32 5 0 0 1 30 0 32 31 0 27 31 31 32 32 32 32
split_gain=526519 86108.9 70834.9 31490.1 14686.6 9566.25 7225.66 6594.23 5648.79 4977.79 4010.59 4255.22 3585.43 3455.62 3773.49 3427.3 3288.37 3265.58 3106.29 3102.2 4023.58 3096.74 2825.69 2760.16 2618.09 2572.37 4292.78 3242.27 2544.78 2520.96
threshold=14.700000000000001 10.100000000000001 24.500000000000004 5.3166666666666673 19.100000000000005 7.3000000000000016 13.950000000000001 31.100000000000005 2.7000000000000006 0.36207981100000003 34.071428571428577 0.73610926850000014 27.148351648500004 0.62534062850000016 92.500000000000014 17.500000000000004 11.100000000000001 27.050000000000004 4.5000000000000009 9.5000000000000018 0.17435221400000003 35.292857143000006 11.900000000000002 -0.19999999999999971 18.806250000000002 30.345238095000003 0.54507995850000013 0.48147867700000008 0.28915424850000004 0.6296466675000002
decision_type=2 2 2 2 2 2 2 2 2 2 2 2 2 2 2 2 2 2 2 2 2 2 2 2 2 2 2 2 2 2
left_child=1 3 4 8 13 28 12 10 -1 22 11 17 -7 14 24 -16 -11 -4 -12 20 -10 -8 -3 -6 -2 26 -18 -27 -5 -25
right_child=2 9 7 5 23 6 21 -9 19 16 18 -13 -14 -15 15 -17 25 -19 -20 -21 -22 -23 -24 29 -26 27 -28 -29 -30 -31
leaf_value=-0.14008115247396968 0.31442600525263081 0.039217347348322877 0.2651322003393643 -0.045354425524781847 0.11420091218008248 -0.025657131277338065 0.071162918392629976 0.35456568878411854 -0.02482531150981334 -0.021718690300064548 0.21949750227508194 0.20157248990218971 -0.068935028398853002 0.028175097808048419 0.098435824089526447 0.16809797245171818 0.051167621978717902 0.43532676836386541 0.61506320172813089 -0.12949909784246155 -0.097291743837662162 0.33564269959940451 0.12250328474490063 0.19529785754218373 0.06110392092848678 0.01186760113403261 -0.016302894400860791 -0.08761321875888696 -0.089235546205050642 0.14247355559252226
leaf_weight=4617.4658295908011 32.767707511782646 1012.3189303367399 1271.8989860720467 1574.7798457341269 948.70471092523076 6967.0159926319029 204.45833348855376 783.39865221898071 777.96653810469434 1989.3305026039016 40.198965705232695 1199.2304357653484 2290.6095224141609 739.90711661265232 2340.3646374552045 895.48065809160471 3446.3649194119498 121.8491608214099 47.210197001695633 2351.75369644491 6401.7794825872406 45.977388471364975 577.53920549992472 2049.3289643372409 2049.172687260434 1582.826489576837 1122.3580934088677 357.1024765309412 5106.8406280088238 1499.9994048429653
leaf_count=4534 17 1214 1030 1941 783 6989 132 678 586 1952 100 1133 2383 574 2341 838 3795 140 7 1323 6902 10 614 2134 2394 1373 908 522 5676 1423
internal_value=0.000151327 -0.0547885 0.158539 -0.0800325 0.119809 -0.0514327 -0.0320716 0.276222 -0.112726 0.0211321 0.252701 0.245013 -0.0363984 0.0891811 0.0976322 0.117948 0.011995 0.281525 0.455027 -0.0994067 -0.0894644 0.125397 0.0697708 0.160908 0.0658419 0.0223105 0.0345897 -0.00661529 -0.0789372 0.17321
internal_weight=54446 40426.5 14019.5 30338.6 10555.7 16189.7 9508.06 3463.79 14149 10087.8 2680.39 2592.98 9257.63 6057.69 5317.79 3235.85 8497.98 1393.75 87.4092 9531.5 7179.75 250.436 1589.86 4498.03 2081.94 6508.65 4568.72 1939.93 6681.62 3549.33
internal_count=54446 40854 13592 30476 10504 17131 9514 3088 13345 10378 2410 2303 9372 6164 5590 3179 8550 1170 107 8811 7488 142 1828 4340 2411 6598 4703 1895 7617 3557
is_linear=0
shrinkage=0.03


Tree=24
num_leaves=31
num_cat=0
split_feature=0 0 1 0 0 0 0 1 0 12 29 32 0 32 32 3 32 32 22 6 27 25 32 1 1 1 2 27 32 22
split_gain=496028 86179.6 61209.7 20281.1 16369.1 12509.6 7303.92 6844.89 5876.87 6043.08 4767.11 4552.72 4285.22 4926.25 4151.26 6385.04 3651.11 3513.79 3346.02 3268.51 3266.97 2777.29 2671.16 3309.23 2928.5 2582.28 2453.74 2376.09 2349.97 2141.42
threshold=13.100000000000001 22.500000000000004 5.5277777777777786 7.5000000000000009 17.500000000000004 26.300000000000001 10.100000000000001 13.725000000000001 2.7000000000000006 1.0000000180025095e-35 34.071428571428577 0.37802251650000002 34.70000000000001 0.70461043300000015 0.42812787350000009 7.1350000000000007 0.38396116450000006 0.25991214650000005 107.35000000000001 -4.2499999999999991 2.2500000000000022 19.10172413793104 0.64839312500000013 21.650000000000002 20.725000000000005 12.105555555555556 3.3011627906976755 -0.86038961038961037 0.65942213550000017 102.95000000000002
decision_type=2 2 2 2 2 2 2 2 2 2 2 2 2 2 2 2 2 2 2 2 2 2 2 2 2 2 2 2 2 2
left_child=2 4 8 17 16 19 7 11 -1 26 12 -5 13 -7 15 -8 29 -4 -16 -3 22 -9 24 -24 -6 -18 -10 -21 -29 -2
right_child=1 5 3 6 20 10 14 21 9 -11 -12 -13 -14 -15 18 -17 25 -19 -20 27 -22 -23 23 -25 -26 -27 -28 28 -30 -31
leaf_value=-0.13574727663354424 0.099251740556397627 -0.044283574165869782 -0.01461487350149061 -0.0095610934784654787 0.12740729178864432 0.34979880788854995 0.018910495358397474 0.048464081976605976 -0.12891404632676762 -0.041955014733526211 0.45399197891293003 -0.053974601011631457 0.44721355759258713 0.23926842550611946 -0.016791183784336122 0.14212206321571391 -0.00051540060784342962 -0.081032924180802865 0.22713758681494947 0.10645784551268705 0.32844192865587113 0.2566892143042398 0.022608412210032978 0.14215157333794859 0.19192892932352892 0.061918179806282753 -0.093968399682577211 0.24705474202015631 0.1798634537707168 0.2304973891255786
leaf_weight=4636.0591791984625 538.58249095757492 49.758538372116163 819.06209026789293 3758.5699924160726 3139.4365475806408 506.84657859476283 3472.7410363201052 166.92878132150508 2686.0374398836866 1644.6707921335474 155.94305741018616 4648.2402672981843 131.96496689482592 1676.1320174627472 3317.5635386244394 420.28070301236585 664.94468260020949 5917.5697965242434 46.401930034160614 251.37007704027928 73.920418120454997 85.849494508467615 429.66847941908054 404.54926899285056 827.13124213530682 5717.6410343451425 5975.6647470667958 863.40393572929315 1275.2048692635726 143.86216593859717
leaf_count=4552 581 58 954 4121 3206 397 3341 122 1805 2115 148 4488 172 1451 3442 525 747 6696 12 157 89 36 397 487 699 5935 5588 926 1105 94
internal_value=0.000155388 0.135388 -0.0604654 -0.0293645 0.0918098 0.24114 -0.0108877 -0.0294847 -0.107589 -0.0948611 0.289048 -0.0341372 0.276976 0.265679 0.0113066 0.0323812 0.0625555 -0.0729767 -0.0130899 0.192122 0.134098 0.122848 0.130764 0.0810996 0.14109 0.0554161 -0.104875 0.197132 0.20751 0.128416
internal_weight=54446 16850.4 37595.6 22653.2 11939.7 4910.62 15916.6 8659.59 14942.4 10306.4 2470.89 8406.81 2314.94 2182.98 7256.99 3893.02 7065.03 6736.63 3363.97 2439.74 4874.71 252.778 4800.79 834.218 3966.57 6382.59 8661.7 2389.98 2138.61 682.445
internal_count=54446 16649 37797 23737 12235 4414 16087 8767 14060 9508 2168 8609 2020 1848 7320 3866 7357 7650 3454 2246 4878 158 4789 884 3905 6682 7393 2188 2031 675
is_linear=0
shrinkage=0.03


Tree=25
num_leaves=31
num_cat=0
split_feature=0 25 0 0 1 0 1 29 0 0 0 30 0 22 30 22 5 11 5 22 27 22 30 25 27 0 0 19 27 27
split_gain=467153 76670.9 62912.3 15243 14555.7 14343.6 5866.24 5422.92 4700.9 4697.56 4690.52 4231 3974.9 3691.42 3027.36 2783.41 2709.74 3105.71 2649.42 2816.36 2520.01 2423.5 2256.25 2189.7 2188.02 2169.96 2724.05 2128.71 3016.02 2740.64
threshold=14.700000000000001 7.5049019607843155 25.100000000000005 11.300000000000002 5.3166666666666673 19.100000000000005 16.250000000000004 34.071428571428577 7.3000000000000016 2.3000000000000003 34.300000000000004 7.5000000000000009 7.7000000000000002 102.65000000000002 1.0000000180025095e-35 101.25000000000001 92.500000000000014 1.0000000180025095e-35 92.500000000000014 107.25000000000001 1.3333333333333328 103.85000000000001 5.5000000000000009 19.10172413793104 -0.1306818181818192 8.3000000000000025 5.1000000000000005 0.19360000000000002 2.4415584415584424 0.16666666666666655
decision_type=2 2 2 2 2 2 2 2 2 2 2 2 2 2 2 2 2 2 2 2 2 2 2 2 2 2 2 2 2 2
left_child=1 4 5 6 9 18 12 10 -6 -1 11 15 -3 20 -14 -4 17 21 24 -20 -5 -7 -9 -8 -2 26 -11 28 -18 -29
right_child=2 3 7 13 8 16 23 22 -10 25 -12 -13 14 -15 -16 -17 27 -19 19 -21 -22 -23 -24 -25 -26 -27 -28 29 -30 -31
leaf_value=-0.1366927839670169 -0.012162180031082909 -0.061893955658902211 0.22067235747529237 0.009427401409980208 -0.077420835799488871 0.12273427546378447 0.032339551140784142 0.32764767609695883 -0.033631123015537973 -0.098832394118433822 0.42842619055194897 0.16805689368935878 -0.08131580123405252 0.060713539460382507 -0.013622974347988193 0.29255145152872025 0.1216109551232301 0.18255531595332833 0.10311109423481502 -0.12595731466574703 0.12389056431895251 0.017823147151489357 0.5924628293308708 0.24906236054725944 0.070753085008602876 -0.12217011054160638 -0.057142069026558204 0.22167692094518018 0.46590281428373453 0.12557695815174522
leaf_weight=3611.1895835697651 330.78286727890372 2538.64328479697 903.38421615492553 4073.4671187086497 4984.6986835026182 1529.8293504356407 81.63897582446225 115.02951989485882 3981.6079562613741 6023.3164604124613 140.98816751665436 533.88842307403684 640.8085345311556 2422.3003275033552 7575.8984516847413 1416.7842328704428 713.88485048222356 762.7777897734195 3626.8650678556878 44.878634750843048 175.89997155009769 230.087104720762 59.845907986164093 85.639774740673602 2055.1662370462436 2353.3539752343204 1878.024776525097 1156.1115992283449 19.49078441504389 379.71753113763407
leaf_count=3562 410 3438 1356 4833 5213 1544 39 158 4205 6001 200 165 2021 1859 6182 881 806 830 3536 10 136 204 6 36 2208 1343 1986 936 11 331
internal_value=0.000159883 -0.0515901 0.149352 -0.00452132 -0.0878513 0.114904 -0.0263413 0.266882 -0.0580067 -0.107121 0.256514 0.247282 -0.029112 0.0311924 -0.0189503 0.265106 0.153715 0.131645 0.0840991 0.10014 0.0143091 0.109116 0.432306 0.147388 0.0592502 -0.0966445 -0.0889676 0.177901 0.133874 0.198412
internal_weight=54446 40426.5 14019.5 17594.3 22832.2 10849.6 10922.6 3169.92 8966.31 13865.9 2995.05 2854.06 10755.4 6671.67 8216.71 2320.17 4791.9 2522.69 6057.69 3671.74 4249.37 1759.92 174.875 167.279 2385.95 10254.7 7901.34 2269.2 733.376 1535.83
internal_count=54446 40854 13592 18544 22310 10826 11716 2766 9418 12892 2602 2402 11641 6828 8203 2237 4662 2578 6164 3546 4969 1748 164 75 2618 9330 7987 2084 817 1267
is_linear=0
shrinkage=0.03


Tree=26
num_leaves=31
num_cat=0
split_feature=0 0 1 0 0 0 0 1 12 30 1 3 22 6 27 0 19 27 29 22 14 25 30 5 3 27 27 26 27 22
split_gain=439912 76688.9 54154.3 17922.9 14519.3 11119.1 6563.5 6172.84 5257 4845.18 3558.12 3454.22 3192.84 3051.23 3039.63 2813.07 2751.7 2591.85 3639.4 3571.07 2565.91 2446.61 2404.4 2551.3 2280.64 2232.43 2087 2821.61 2081.44 2035.56
threshold=13.100000000000001 22.500000000000004 5.5277777777777786 7.5000000000000009 17.500000000000004 26.300000000000001 10.100000000000001 13.725000000000001 1.0000000180025095e-35 7.5000000000000009 3.3166666666666669 2.4650000000000003 100.65000000000002 -4.2499999999999991 2.2500000000000022 5.7000000000000002 0.17535000000000003 -0.33333333333333343 15.477272727272728 102.85000000000001 100.03000000000002 19.10172413793104 7.5000000000000009 92.500000000000014 9.4050000000000029 -0.86038961038961037 1.2857142857142858 11.408333333333337 1.0000000000000011 104.25000000000001
decision_type=2 2 2 2 2 2 2 2 2 2 2 2 2 2 2 2 2 2 2 2 2 2 2 2 2 2 2 2 2 2
left_child=2 4 8 15 17 13 7 28 10 12 -1 -10 20 -3 22 -4 -11 18 -2 -20 -7 -9 23 -6 -14 -15 -8 -28 -5 -19
right_child=1 5 3 6 14 9 26 21 11 16 -12 -13 24 25 -16 -17 -18 29 19 -21 -22 -23 -24 -25 -26 -27 27 -29 -30 -31
leaf_value=-0.12566500748971748 -0.043838423167898113 -0.047011687922742906 -0.097748540407482779 -0.0344454954244445 0.10679039415358806 0.1561483019452185 0.0078364981814120615 0.046855481250968202 -0.11746086152999567 0.31302496818624126 -0.093232516699760445 -0.039529321964236544 0.28949572941720148 0.098218810402052131 0.31356837959554301 -0.055604736147331392 0.1423491458123306 0.057512726825387647 0.16281651729989347 -0.072845138420400288 0.29738731003072166 0.2423721545402962 0.074755563921848858 0.15565423473473378 0.38128780281630209 0.19595183180684178 0.20239436323807058 -0.0084950748994427182 0.073212923233226493 0.10399783091891689
leaf_weight=6131.9142379802652 476.06056639645249 49.758538372116163 2078.0158725737128 8246.573486054549 1902.3524824322667 272.60329340607859 7034.4140011435375 166.92878132150508 712.95489840512164 114.28340841084719 6276.9310703545343 1820.6319515425712 1048.1346980431117 251.37007704027928 73.920418120454997 4658.6160142184235 378.7921115104109 5301.7585326794069 189.08441384322941 78.927978097461164 234.3215339933522 85.849494508467615 800.86770493537188 2097.5653507602401 422.75157499872148 2138.6088049928658 112.52852038061246 110.04468646692112 160.23677365970798 1019.1988828249741
leaf_count=5402 474 58 2757 8500 2334 493 7157 122 374 42 5745 2539 661 157 89 4893 110 5881 197 59 593 36 232 2223 269 2031 76 87 109 746
internal_value=0.000163737 0.127517 -0.056925 -0.0276714 0.0864086 0.227276 -0.0103019 -0.0279311 -0.101249 0.272443 -0.109305 -0.0616534 0.293794 0.181062 0.126236 -0.0686697 0.184683 0.0588566 0.0058305 0.0932976 0.223731 0.116729 0.123025 0.132581 0.31709 0.185905 0.0107373 0.100165 -0.0323494 0.0650867
internal_weight=54446 16850.4 37595.6 22653.2 11939.7 4910.62 15916.6 8659.59 14942.4 2470.89 12408.8 2533.59 1977.81 2439.74 4874.71 6736.63 493.076 7065.03 744.073 268.012 506.925 252.778 4800.79 3999.92 1470.89 2389.98 7256.99 222.573 8406.81 6320.96
internal_count=54446 16649 37797 23737 12235 4414 16087 8767 14060 2168 11147 2913 2016 2246 4878 7650 152 7357 730 256 1086 158 4789 4557 930 2188 7320 163 8609 6627
is_linear=0
shrinkage=0.03


Tree=27
num_leaves=31
num_cat=0
split_feature=0 0 0 1 0 0 1 0 12 32 3 3 29 32 32 32 1 3 0 32 0 22 27 32 2 32 2 32 21 2
split_gain=414450 67436.8 55885.2 24642.7 11493.3 7562.51 5830.65 5646.47 5432.27 4612.34 4138.22 3576.23 3504.68 3941.57 3346.09 3202.85 3048.02 2916.85 2881.22 2743.15 2736.11 2624.23 2842.2 2535.54 3595.91 3947.05 2953.15 2615.52 2534.83 2646.26
threshold=14.700000000000001 10.100000000000001 24.500000000000004 5.3166666666666673 19.100000000000005 6.9000000000000012 15.316666666666668 31.100000000000005 1.0000000180025095e-35 0.36207981100000003 7.9450000000000012 2.4650000000000003 34.071428571428577 0.73610926850000014 0.37802251650000002 0.62534062850000016 27.050000000000004 9.2250000000000032 2.1000000000000005 0.79263042900000014 11.100000000000001 102.55000000000001 1.7142857142857151 0.54507995850000013 21.702272727272728 0.6296466675000002 17.60172413793104 0.64839312500000013 0.030418690500000005 17.010000000000009
decision_type=2 2 2 2 2 2 2 2 2 2 2 2 2 2 2 2 2 2 2 2 2 2 2 2 2 2 2 2 2 2
left_child=1 3 4 8 15 -5 14 12 18 10 -3 -10 13 16 -7 28 -4 -15 -1 -14 -11 22 -22 26 27 -26 -6 -25 -2 -30
right_child=2 9 7 5 23 6 -8 -9 11 20 -12 -13 19 17 -16 -17 -18 -19 -20 -21 21 -23 -24 24 25 -27 -28 -29 29 -31
leaf_value=-0.1368840413103026 0.20770325253995089 0.052143785175124052 0.23572252446009581 -0.074176039064041924 0.12064930676275534 -0.01572468691785732 0.14121102390126683 0.31755684768463799 -0.11415592744396848 -0.020935641834015983 0.24444274235281255 -0.033714023943074961 0.53598169527437478 0.1949934311650523 -0.04965259597065115 0.020522628895981155 0.39871739938196538 0.063889542329484364 -0.10030213867778509 0.15862980202211346 0.00069216220053753684 0.044129168406396385 0.16169557475345109 0.12176690712690047 0.26376817628035476 0.14249309594566539 0.2447998972295129 0.03544060296169925 0.069604798024776426 0.11706831808487747
leaf_weight=2518.8795525487512 150.3562671856489 1486.120739006903 1271.8989860720467 5505.1703204794321 314.2843450170476 4945.0373626463115 169.46957697835751 783.39865221898071 711.56696372129954 1989.3305026039016 103.73739682976156 1652.3475163320545 54.875260789180174 1011.6777569067199 5570.0044506448321 739.90711661265232 121.8491608214099 187.5526788586285 9266.1715141255409 32.533901917748153 4014.1357782825362 2398.3429092618171 96.173291384242475 1721.6457344705705 304.41916339751333 1329.7213998069055 434.42825101758353 393.5341863958165 3652.2888376561459 1515.1405854772311
leaf_count=2629 83 1685 1030 6387 545 5354 79 678 370 1952 143 2356 51 879 5311 574 140 254 7990 56 4590 1930 78 1650 260 971 377 537 3908 1599
internal_value=0.00016629 -0.0485771 0.140691 -0.0709172 0.106289 -0.0456169 -0.0308727 0.24522 -0.099839 0.0186096 0.0654276 -0.0581242 0.223521 0.216385 -0.0337134 0.0791935 0.251357 0.174852 -0.108177 0.411875 0.00981551 0.0192256 0.00465486 0.142647 0.132173 0.16583 0.193852 0.105834 0.087327 0.0836242
internal_weight=54446 40426.5 14019.5 30338.6 10555.7 16189.7 10684.5 3463.79 14149 10087.8 1589.86 2363.91 2680.39 2592.98 10515 6057.69 1393.75 1199.23 11785.1 87.4092 8497.98 6508.65 4110.31 4498.03 3749.32 1634.14 748.713 2115.18 5317.79 5167.43
internal_count=54446 40854 13592 30476 10504 17131 10744 3088 13345 10378 1828 2726 2410 2303 10665 6164 1170 1133 10619 107 8550 6598 4668 4340 3418 1231 922 2187 5590 5507
is_linear=0
shrinkage=0.03


Tree=28
num_leaves=31
